0 1 1 100 0.000364352
1 1 1 100 0.999636
0 2 1 100 0.052061
1 2 1 100 0.947939
0 3 1 100 0.0549828
1 3 1 100 0.945017
0 4 1 100 0.16413
1 4 1 100 0.83587
0 5 1 100 0.0047151
1 5 1 100 0.995285
0 6 1 100 2.93593e-06
1 6 1 100 0.999997
0 1 2 100 1.87658e-05
1 1 2 100 0.761978
2 1 2 100 0.238003
0 2 2 100 0.0897515
1 2 2 100 0.21106
2 2 2 100 0.699188
0 3 2 100 0.060075
1 3 2 100 0.185719
2 3 2 100 0.754206
0 4 2 100 0.0675871
1 4 2 100 0.227761
2 4 2 100 0.704652
0 5 2 100 0.0801495
1 5 2 100 0.296082
2 5 2 100 0.623768
0 6 2 100 0.00359267
1 6 2 100 0.496695
2 6 2 100 0.499712
0 7 2 100 2.11617e-05
1 7 2 100 0.999967
2 7 2 100 1.18299e-05
0 8 2 100 2.11012e-05
1 8 2 100 0.999967
2 8 2 100 1.17961e-05
0 9 2 100 2.11617e-05
1 9 2 100 0.999967
2 9 2 100 1.18299e-05
0 10 2 100 2.11252e-05
1 10 2 100 0.999967
2 10 2 100 1.18122e-05
0 11 2 100 2.77733e-07
1 11 2 100 0.99991
2 11 2 100 9.00588e-05
0 1 3 100 2.91128e-05
1 1 3 100 0.534848
2 1 3 100 0.201724
3 1 3 100 0.263399
0 2 3 100 0.0788903
1 2 3 100 0.148291
2 2 3 100 0.306332
3 2 3 100 0.466486
0 3 3 100 0.0891793
1 3 3 100 0.102483
2 3 3 100 0.15502
3 3 3 100 0.653318
0 4 3 100 0.0813765
1 4 3 100 0.120026
2 4 3 100 0.094428
3 4 3 100 0.70417
0 5 3 100 0.114406
1 5 3 100 0.122953
2 5 3 100 0.103048
3 5 3 100 0.659592
0 6 3 100 0.0771227
1 6 3 100 0.0429661
2 6 3 100 0.00536303
3 6 3 100 0.874548
0 7 3 100 0.15687
1 7 3 100 0.0238865
2 7 3 100 0.233696
3 7 3 100 0.585548
0 8 3 100 0.302641
1 8 3 100 3.29151e-05
2 8 3 100 0.0154218
3 8 3 100 0.681904
0 9 3 100 0.0065556
1 9 3 100 0.158406
2 9 3 100 0.772689
3 9 3 100 0.0623495
0 10 3 100 2.58249e-06
1 10 3 100 0.0925152
2 10 3 100 0.906282
3 10 3 100 0.00120016
0 11 3 100 1.33112e-06
1 11 3 100 0.00047308
2 11 3 100 0.988209
3 11 3 100 0.0113171
0 12 3 100 0.0611077
1 12 3 100 6.58304e-05
2 12 3 100 0.00454866
3 12 3 100 0.934278
0 1 4 100 9.93683e-07
1 1 4 100 0.524449
2 1 4 100 0.125133
3 1 4 100 0.229848
4 1 4 100 0.120569
0 2 4 100 0.0906242
1 2 4 100 0.117137
2 2 4 100 0.195437
3 2 4 100 0.259624
4 2 4 100 0.337178
0 3 4 100 0.0834009
1 3 4 100 0.0717022
2 3 4 100 0.111932
3 3 4 100 0.224674
4 3 4 100 0.508291
0 4 4 100 0.0929811
1 4 4 100 0.0595664
2 4 4 100 0.0721539
3 4 4 100 0.189952
4 4 4 100 0.585347
0 5 4 100 0.100863
1 5 4 100 0.0634174
2 5 4 100 0.0707286
3 5 4 100 0.134502
4 5 4 100 0.630489
0 6 4 100 0.116564
1 6 4 100 0.0716363
2 6 4 100 0.0808514
3 6 4 100 0.127411
4 6 4 100 0.603538
0 7 4 100 0.100152
1 7 4 100 0.138766
2 7 4 100 0.0755104
3 7 4 100 0.113966
4 7 4 100 0.571606
0 8 4 100 0.0156759
1 8 4 100 0.138832
2 8 4 100 0.112319
3 8 4 100 0.445109
4 8 4 100 0.288063
0 9 4 100 1.59775e-06
1 9 4 100 3.74636e-07
2 9 4 100 6.8704e-07
3 9 4 100 9.57976e-07
4 9 4 100 0.999996
0 10 4 100 0.238554
1 10 4 100 0.00079251
2 10 4 100 0.0350373
3 10 4 100 0.10634
4 10 4 100 0.619276
0 11 4 100 1.45359e-06
1 11 4 100 1.59029e-07
2 11 4 100 3.01944e-07
3 11 4 100 6.58424e-07
4 11 4 100 0.999997
0 12 4 100 0.277378
1 12 4 100 1.02902e-06
2 12 4 100 0.0260382
3 12 4 100 0.0245248
4 12 4 100 0.672058
0 13 4 100 9.19932e-07
2 13 4 100 1.08748e-07
3 13 4 100 3.09342e-07
4 13 4 100 0.999999
0 14 4 100 9.19932e-07
2 14 4 100 1.08748e-07
3 14 4 100 3.09342e-07
4 14 4 100 0.999999
0 15 4 100 9.19932e-07
2 15 4 100 1.16217e-07
3 15 4 100 3.05923e-07
4 15 4 100 0.999999
0 16 4 100 0.955398
1 16 4 100 5.7539e-05
2 16 4 100 0.0426179
3 16 4 100 0.0016114
4 16 4 100 0.000315518
0 17 4 100 8.79192e-07
1 17 4 100 1.16077e-07
2 17 4 100 1.26895e-07
3 17 4 100 3.81599e-07
4 17 4 100 0.999999
0 18 4 100 0.467445
1 18 4 100 0.00158434
2 18 4 100 0.0700731
3 18 4 100 0.000141257
4 18 4 100 0.460756
0 19 4 100 8.53883e-07
2 19 4 100 1.32611e-07
3 19 4 100 4.3933e-07
4 19 4 100 0.999999
0 20 4 100 0.955072
1 20 4 100 6.39001e-05
2 20 4 100 0.0429395
3 20 4 100 0.00160867
4 20 4 100 0.000315411
0 21 4 100 0.13287
1 21 4 100 0.000564118
2 21 4 100 0.00514439
3 21 4 100 4.47107e-05
4 21 4 100 0.861377
0 22 4 100 0.000859625
1 22 4 100 1.55603e-07
4 22 4 100 0.99914
1 1 5 100 1
2 2 5 100 1
4 3 5 100 1
5 4 5 100 1
0 5 5 100 0.0943878
1 5 5 100 0.0424131
2 5 5 100 0.0465142
3 5 5 100 0.0940004
4 5 5 100 0.170306
5 5 5 100 0.552379
0 6 5 100 0.098834
1 6 5 100 0.0377243
2 6 5 100 0.0469246
3 6 5 100 0.0815263
4 6 5 100 0.160867
5 6 5 100 0.574124
0 7 5 100 0.121687
1 7 5 100 0.0333907
2 7 5 100 0.043907
3 7 5 100 0.0896337
4 7 5 100 0.17476
5 7 5 100 0.536622
0 8 5 100 0.10914
1 8 5 100 0.0259488
2 8 5 100 0.0625507
3 8 5 100 0.110526
4 8 5 100 0.116201
5 8 5 100 0.575634
0 9 5 100 0.134209
1 9 5 100 0.0393064
2 9 5 100 0.0179398
3 9 5 100 0.157695
4 9 5 100 0.149813
5 9 5 100 0.501036
0 10 5 100 0.00574971
1 10 5 100 8.80051e-07
2 10 5 100 0.000789964
3 10 5 100 0.921144
4 10 5 100 0.0335576
5 10 5 100 0.0387577
0 1 6 100 4.97457e-06
1 1 6 100 0.465909
2 1 6 100 0.146474
3 1 6 100 0.124735
4 1 6 100 0.0755425
5 1 6 100 0.106147
6 1 6 100 0.0811872
0 2 6 100 0.0940766
1 2 6 100 0.099244
2 2 6 100 0.196672
3 2 6 100 0.18453
4 2 6 100 0.15228
5 2 6 100 0.141392
6 2 6 100 0.131804
0 3 6 100 0.085941
1 3 6 100 0.0637012
2 3 6 100 0.0868207
3 3 6 100 0.16475
4 3 6 100 0.197471
5 3 6 100 0.202112
6 3 6 100 0.199205
0 4 6 100 0.0817757
1 4 6 100 0.0464536
2 4 6 100 0.0534841
3 4 6 100 0.109487
4 4 6 100 0.165753
5 4 6 100 0.219156
6 4 6 100 0.323891
0 5 6 100 0.0886845
1 5 6 100 0.0304077
2 5 6 100 0.0434534
3 5 6 100 0.0753377
4 5 6 100 0.12798
5 5 6 100 0.189284
6 5 6 100 0.444853
0 6 6 100 0.0930869
1 6 6 100 0.0279172
2 6 6 100 0.0394367
3 6 6 100 0.0711564
4 6 6 100 0.101452
5 6 6 100 0.165972
6 6 6 100 0.500979
0 7 6 100 0.0826415
1 7 6 100 0.0265608
2 7 6 100 0.0401185
3 7 6 100 0.0548829
4 7 6 100 0.101246
5 7 6 100 0.15612
6 7 6 100 0.53843
0 8 6 100 0.106777
1 8 6 100 0.0330138
2 8 6 100 0.0361251
3 8 6 100 0.0473416
4 8 6 100 0.081824
5 8 6 100 0.182096
6 8 6 100 0.512823
0 9 6 100 0.0970396
1 9 6 100 0.0611071
2 9 6 100 0.0276708
3 9 6 100 0.0708014
4 9 6 100 0.130573
5 9 6 100 0.12503
6 9 6 100 0.487778
0 10 6 100 0.0817067
1 10 6 100 0.00264937
2 10 6 100 0.00103419
3 10 6 100 0.133081
4 10 6 100 0.0896292
5 10 6 100 0.0715461
6 10 6 100 0.620353
0 11 6 100 0.0482765
1 11 6 100 9.23317e-05
2 11 6 100 0.00040462
3 11 6 100 0.000302457
4 11 6 100 0.0216027
5 11 6 100 0.305607
6 11 6 100 0.623714
0 12 6 100 0.0198487
1 12 6 100 0.000710214
2 12 6 100 1.52397e-07
4 12 6 100 5.97466e-05
5 12 6 100 3.00931e-06
6 12 6 100 0.979378
0 1 7 100 1.78886e-06
1 1 7 100 0.480003
2 1 7 100 0.12881
3 1 7 100 0.107528
4 1 7 100 0.0587115
5 1 7 100 0.0497116
6 1 7 100 0.0990234
7 1 7 100 0.0762112
0 2 7 100 0.0953265
1 2 7 100 0.0897781
2 2 7 100 0.207209
3 2 7 100 0.174568
4 2 7 100 0.129883
5 2 7 100 0.0912053
6 2 7 100 0.109478
7 2 7 100 0.102552
0 3 7 100 0.089587
1 3 7 100 0.0533357
2 3 7 100 0.0807858
3 3 7 100 0.159878
4 3 7 100 0.179463
5 3 7 100 0.148213
6 3 7 100 0.145371
7 3 7 100 0.143367
0 4 7 100 0.0851754
1 4 7 100 0.0386765
2 4 7 100 0.0455833
3 4 7 100 0.0942903
4 4 7 100 0.153525
5 4 7 100 0.166409
6 4 7 100 0.203004
7 4 7 100 0.213337
0 5 7 100 0.0903681
1 5 7 100 0.0271163
2 5 7 100 0.0340274
3 5 7 100 0.0637447
4 5 7 100 0.115767
5 5 7 100 0.151001
6 5 7 100 0.191004
7 5 7 100 0.326971
0 6 7 100 0.101112
1 6 7 100 0.0235492
2 6 7 100 0.0207351
3 6 7 100 0.047384
4 6 7 100 0.0921299
5 6 7 100 0.114814
6 6 7 100 0.181607
7 6 7 100 0.41867
0 7 7 100 0.0983261
1 7 7 100 0.0197715
2 7 7 100 0.0208715
3 7 7 100 0.0374166
4 7 7 100 0.0873779
5 7 7 100 0.104104
6 7 7 100 0.150899
7 7 7 100 0.481234
0 8 7 100 0.112232
1 8 7 100 0.00996888
2 8 7 100 0.0186749
3 8 7 100 0.0377057
4 8 7 100 0.0879152
5 8 7 100 0.0917457
6 8 7 100 0.149524
7 8 7 100 0.492233
0 9 7 100 0.106026
1 9 7 100 0.0210656
2 9 7 100 0.012298
3 9 7 100 0.0594412
4 9 7 100 0.0841616
5 9 7 100 0.0794422
6 9 7 100 0.118167
7 9 7 100 0.519398
0 10 7 100 0.11053
1 10 7 100 0.0301991
2 10 7 100 0.000838771
3 10 7 100 0.065746
4 10 7 100 0.0258608
5 10 7 100 0.0459266
6 10 7 100 0.13786
7 10 7 100 0.583038
0 11 7 100 0.0837763
1 11 7 100 0.0068049
2 11 7 100 0.0146251
3 11 7 100 0.0806114
4 11 7 100 0.00494777
5 11 7 100 0.00347419
6 11 7 100 0.129077
7 11 7 100 0.676684
0 12 7 100 0.220344
1 12 7 100 6.87988e-05
2 12 7 100 0.0122656
3 12 7 100 0.00172714
4 12 7 100 0.000284868
5 12 7 100 0.22285
6 12 7 100 0.00490951
7 12 7 100 0.53755
0 1 8 100 1.42463e-06
1 1 8 100 0.489188
2 1 8 100 0.130314
3 1 8 100 0.0987366
4 1 8 100 0.0573447
5 1 8 100 0.0366984
6 1 8 100 0.0489475
7 1 8 100 0.0826266
8 1 8 100 0.0561432
0 2 8 100 0.102572
1 2 8 100 0.0839181
2 2 8 100 0.202856
3 2 8 100 0.158239
4 2 8 100 0.113636
5 2 8 100 0.08108
6 2 8 100 0.0772962
7 2 8 100 0.0948421
8 2 8 100 0.085561
0 3 8 100 0.09063
1 3 8 100 0.0514335
2 3 8 100 0.0784049
3 3 8 100 0.156168
4 3 8 100 0.160139
5 3 8 100 0.124225
6 3 8 100 0.105554
7 3 8 100 0.12215
8 3 8 100 0.111296
0 4 8 100 0.0855662
1 4 8 100 0.0386148
2 4 8 100 0.0427666
3 4 8 100 0.0873522
4 4 8 100 0.141362
5 4 8 100 0.148441
6 4 8 100 0.141208
7 4 8 100 0.151373
8 4 8 100 0.163317
0 5 8 100 0.0970436
1 5 8 100 0.0247371
2 5 8 100 0.0303691
3 5 8 100 0.0544561
4 5 8 100 0.0990182
5 5 8 100 0.135951
6 5 8 100 0.145946
7 5 8 100 0.176495
8 5 8 100 0.235984
0 6 8 100 0.0933951
1 6 8 100 0.0214922
2 6 8 100 0.0238607
3 6 8 100 0.0418818
4 6 8 100 0.0834104
5 6 8 100 0.100631
6 6 8 100 0.130856
7 6 8 100 0.173574
8 6 8 100 0.330898
0 7 8 100 0.0899347
1 7 8 100 0.0215868
2 7 8 100 0.0161851
3 7 8 100 0.0437421
4 7 8 100 0.0616731
5 7 8 100 0.0859426
6 7 8 100 0.110583
7 7 8 100 0.169582
8 7 8 100 0.400771
0 8 8 100 0.0912688
1 8 8 100 0.0182275
2 8 8 100 0.0172121
3 8 8 100 0.0323997
4 8 8 100 0.0762492
5 8 8 100 0.0702649
6 8 8 100 0.108508
7 8 8 100 0.159275
8 8 8 100 0.426595
0 9 8 100 0.0740558
1 9 8 100 0.022372
2 9 8 100 0.0204246
3 9 8 100 0.0417021
4 9 8 100 0.0722782
5 9 8 100 0.0707202
6 9 8 100 0.101953
7 9 8 100 0.120924
8 9 8 100 0.47557
0 10 8 100 0.112518
1 10 8 100 0.0342139
2 10 8 100 0.0197763
3 10 8 100 0.0472833
4 10 8 100 0.057959
5 10 8 100 0.0670415
6 10 8 100 0.0700299
7 10 8 100 0.10872
8 10 8 100 0.482458
0 11 8 100 0.0552742
1 11 8 100 0.02232
2 11 8 100 0.0261195
3 11 8 100 0.0582113
4 11 8 100 0.107358
5 11 8 100 0.0551101
6 11 8 100 0.0788011
7 11 8 100 0.0805587
8 11 8 100 0.516247
0 12 8 100 0.119267
1 12 8 100 0.00435353
2 12 8 100 0.000116241
3 12 8 100 0.00886953
4 12 8 100 0.125095
5 12 8 100 0.0968539
6 12 8 100 0.0920296
7 12 8 100 0.0902455
8 12 8 100 0.463169
0 13 8 100 0.158388
1 13 8 100 0.000375455
2 13 8 100 0.0005317
3 13 8 100 0.126178
4 13 8 100 0.0674299
5 13 8 100 0.00569432
6 13 8 100 0.126512
7 13 8 100 0.000313854
8 13 8 100 0.514577
0 14 8 100 0.434426
1 14 8 100 0.0718733
2 14 8 100 0.0013325
3 14 8 100 0.0048087
4 14 8 100 0.0055215
5 14 8 100 0.00121325
6 14 8 100 0.00699597
7 14 8 100 0.00291721
8 14 8 100 0.470912
0 1 9 100 1.10693e-06
1 1 9 100 0.475087
2 1 9 100 0.126623
3 1 9 100 0.100535
4 1 9 100 0.0419423
5 1 9 100 0.039744
6 1 9 100 0.0436309
7 1 9 100 0.0467053
8 1 9 100 0.0721585
9 1 9 100 0.0535726
0 2 9 100 0.102627
1 2 9 100 0.0868014
2 2 9 100 0.192132
3 2 9 100 0.146936
4 2 9 100 0.109892
5 2 9 100 0.068908
6 2 9 100 0.0668842
7 2 9 100 0.0685814
8 2 9 100 0.0834726
9 2 9 100 0.0737664
0 3 9 100 0.0951242
1 3 9 100 0.0408535
2 3 9 100 0.0783783
3 3 9 100 0.159159
4 3 9 100 0.142447
5 3 9 100 0.112788
6 3 9 100 0.0948376
7 3 9 100 0.083268
8 3 9 100 0.10652
9 3 9 100 0.0866246
0 4 9 100 0.0906341
1 4 9 100 0.0306662
2 4 9 100 0.0407425
3 4 9 100 0.0797087
4 4 9 100 0.136966
5 4 9 100 0.130717
6 4 9 100 0.124574
7 4 9 100 0.10719
8 4 9 100 0.134634
9 4 9 100 0.124167
0 5 9 100 0.0931024
1 5 9 100 0.0230041
2 5 9 100 0.029631
3 5 9 100 0.0574872
4 5 9 100 0.0879293
5 5 9 100 0.120201
6 5 9 100 0.12413
7 5 9 100 0.131466
8 5 9 100 0.151461
9 5 9 100 0.181589
0 6 9 100 0.0952875
1 6 9 100 0.0173844
2 6 9 100 0.0221468
3 6 9 100 0.0377199
4 6 9 100 0.0676496
5 6 9 100 0.0901031
6 6 9 100 0.12243
7 6 9 100 0.131564
8 6 9 100 0.163126
9 6 9 100 0.25259
0 7 9 100 0.0986956
1 7 9 100 0.0173281
2 7 9 100 0.0174046
3 7 9 100 0.0309505
4 7 9 100 0.0539902
5 7 9 100 0.069327
6 7 9 100 0.0962232
7 7 9 100 0.125081
8 7 9 100 0.170788
9 7 9 100 0.320212
0 8 9 100 0.0967442
1 8 9 100 0.00909078
2 8 9 100 0.0128202
3 8 9 100 0.0268857
4 8 9 100 0.0518364
5 8 9 100 0.0585282
6 8 9 100 0.0823341
7 8 9 100 0.105394
8 8 9 100 0.170715
9 8 9 100 0.385652
0 9 9 100 0.0919561
1 9 9 100 0.0113493
2 9 9 100 0.0113358
3 9 9 100 0.0150377
4 9 9 100 0.0436988
5 9 9 100 0.0572183
6 9 9 100 0.0840023
7 9 9 100 0.116852
8 9 9 100 0.15319
9 9 9 100 0.41536
0 10 9 100 0.106062
1 10 9 100 0.012162
2 10 9 100 0.0148213
3 10 9 100 0.0144719
4 10 9 100 0.0283348
5 10 9 100 0.0406803
6 10 9 100 0.0684921
7 10 9 100 0.0791634
8 10 9 100 0.184685
9 10 9 100 0.451127
0 11 9 100 0.114228
1 11 9 100 0.013607
2 11 9 100 0.0246877
3 11 9 100 0.0334235
4 11 9 100 0.030399
5 11 9 100 0.0390966
6 11 9 100 0.0361897
7 11 9 100 0.0852563
8 11 9 100 0.121601
9 11 9 100 0.501512
0 12 9 100 0.115698
1 12 9 100 0.0252156
2 12 9 100 0.00699817
3 12 9 100 0.0562575
4 12 9 100 0.0292096
5 12 9 100 0.0741802
6 12 9 100 0.0725282
7 12 9 100 0.0570036
8 12 9 100 0.108865
9 12 9 100 0.454044
0 13 9 100 0.111445
1 13 9 100 5.69269e-05
2 13 9 100 0.00239041
3 13 9 100 0.00153501
4 13 9 100 0.148109
5 13 9 100 0.00637976
6 13 9 100 0.00325821
7 13 9 100 0.0929484
8 13 9 100 0.0773804
9 13 9 100 0.556497
0 14 9 100 0.360312
1 14 9 100 0.00335225
2 14 9 100 0.000549788
3 14 9 100 0.00509826
4 14 9 100 0.0239777
5 14 9 100 0.000180989
6 14 9 100 0.0082636
7 14 9 100 0.0348868
8 14 9 100 0.0037704
9 14 9 100 0.559609
0 15 9 100 0.000107317
1 15 9 100 1.51035e-07
2 15 9 100 1.36322e-06
3 15 9 100 3.75967e-07
4 15 9 100 0.2187
5 15 9 100 0.499913
6 15 9 100 2.05664e-07
7 15 9 100 2.72072e-05
8 15 9 100 0.28125
9 15 9 100 4.95752e-07
0 16 9 100 8.22155e-07
1 16 9 100 9.91906e-05
3 16 9 100 4.8735e-07
4 16 9 100 0.343506
5 16 9 100 3.06937e-05
6 16 9 100 0.499412
7 16 9 100 4.8296e-06
8 16 9 100 0.156945
9 16 9 100 7.05349e-07
0 17 9 100 0.421816
1 17 9 100 0.0574036
2 17 9 100 0.000109925
3 17 9 100 4.44055e-06
4 17 9 100 0.438571
5 17 9 100 0.000445582
6 17 9 100 0.0592007
7 17 9 100 0.00476909
8 17 9 100 0.0143755
9 17 9 100 0.00330423
3 18 9 100 0.000771685
4 18 9 100 6.84701e-05
5 18 9 100 0.499824
6 18 9 100 3.71614e-07
7 18 9 100 1.55579e-06
8 18 9 100 0.440067
9 18 9 100 0.0592675
0 1 10 100 1.89467e-06
1 1 10 100 0.466897
2 1 10 100 0.146273
3 1 10 100 0.0985086
4 1 10 100 0.0379987
5 1 10 100 0.033745
6 1 10 100 0.0269585
7 1 10 100 0.0434599
8 1 10 100 0.0364959
9 1 10 100 0.0531952
10 1 10 100 0.0564663
0 2 10 100 0.0987039
1 2 10 100 0.0769457
2 2 10 100 0.193986
3 2 10 100 0.155993
4 2 10 100 0.11573
5 2 10 100 0.0671038
6 2 10 100 0.0505742
7 2 10 100 0.0546712
8 2 10 100 0.0531961
9 2 10 100 0.0695292
10 2 10 100 0.0635669
0 3 10 100 0.090102
1 3 10 100 0.0398484
2 3 10 100 0.0784445
3 3 10 100 0.144966
4 3 10 100 0.150682
5 3 10 100 0.106784
6 3 10 100 0.0882207
7 3 10 100 0.0759711
8 3 10 100 0.062219
9 3 10 100 0.0823171
10 3 10 100 0.0804463
0 4 10 100 0.0921493
1 4 10 100 0.0275083
2 4 10 100 0.0370931
3 4 10 100 0.0697194
4 4 10 100 0.132295
5 4 10 100 0.139431
6 4 10 100 0.122343
7 4 10 100 0.096441
8 4 10 100 0.0844771
9 4 10 100 0.0952069
10 4 10 100 0.103336
0 5 10 100 0.10186
1 5 10 100 0.0209965
2 5 10 100 0.0285139
3 5 10 100 0.0426358
4 5 10 100 0.0833506
5 5 10 100 0.109982
6 5 10 100 0.121162
7 5 10 100 0.131156
8 5 10 100 0.102136
9 5 10 100 0.113329
10 5 10 100 0.144877
0 6 10 100 0.0854814
1 6 10 100 0.0163832
2 6 10 100 0.0187426
3 6 10 100 0.0358057
4 6 10 100 0.0592203
5 6 10 100 0.0904779
6 6 10 100 0.105377
7 6 10 100 0.118715
8 6 10 100 0.111341
9 6 10 100 0.147116
10 6 10 100 0.21134
0 7 10 100 0.0865691
1 7 10 100 0.0128492
2 7 10 100 0.0164612
3 7 10 100 0.0277249
4 7 10 100 0.0501438
5 7 10 100 0.0568675
6 7 10 100 0.0893144
7 7 10 100 0.110934
8 7 10 100 0.123382
9 7 10 100 0.160022
10 7 10 100 0.265732
0 8 10 100 0.0892291
1 8 10 100 0.0165498
2 8 10 100 0.0115205
3 8 10 100 0.0232771
4 8 10 100 0.0424272
5 8 10 100 0.060752
6 8 10 100 0.0705367
7 8 10 100 0.0815456
8 8 10 100 0.106293
9 8 10 100 0.163108
10 8 10 100 0.334761
0 9 10 100 0.109395
1 9 10 100 0.00962534
2 9 10 100 0.0107894
3 9 10 100 0.0176533
4 9 10 100 0.0346156
5 9 10 100 0.0480307
6 9 10 100 0.0639025
7 9 10 100 0.0837096
8 9 10 100 0.0965969
9 9 10 100 0.145049
10 9 10 100 0.380632
0 10 10 100 0.0883063
1 10 10 100 0.00922402
2 10 10 100 0.00741434
3 10 10 100 0.0260469
4 10 10 100 0.0257126
5 10 10 100 0.0490578
6 10 10 100 0.0552302
7 10 10 100 0.0721704
8 10 10 100 0.0714476
9 10 10 100 0.141035
10 10 10 100 0.454355
0 11 10 100 0.111527
1 11 10 100 0.000923988
2 11 10 100 0.00205001
3 11 10 100 0.0183411
4 11 10 100 0.0318958
5 11 10 100 0.0329288
6 11 10 100 0.056908
7 11 10 100 0.0637907
8 11 10 100 0.0720626
9 11 10 100 0.138878
10 11 10 100 0.470694
0 12 10 100 0.162629
1 12 10 100 0.0118096
2 12 10 100 0.00137087
3 12 10 100 0.0139226
4 12 10 100 0.00822511
5 12 10 100 0.0692714
6 12 10 100 0.0304033
7 12 10 100 0.0785584
8 12 10 100 0.0622948
9 12 10 100 0.104007
10 12 10 100 0.457508
0 13 10 100 0.0262626
1 13 10 100 0.0066523
2 13 10 100 2.3595e-05
3 13 10 100 0.0307807
4 13 10 100 0.0011512
5 13 10 100 0.0766969
6 13 10 100 0.00798097
7 13 10 100 0.0343938
8 13 10 100 0.0341593
9 13 10 100 0.154336
10 13 10 100 0.627563
0 14 10 100 0.0510323
1 14 10 100 0.000190528
2 14 10 100 0.0829254
3 14 10 100 0.105488
4 14 10 100 0.000317478
5 14 10 100 0.0357383
6 14 10 100 3.09256e-05
7 14 10 100 0.000582187
8 14 10 100 0.025695
9 14 10 100 0.00171442
10 14 10 100 0.696286
0 15 10 100 0.127706
1 15 10 100 0.00303079
2 15 10 100 0.0384899
3 15 10 100 0.0423292
4 15 10 100 0.000154261
5 15 10 100 0.0179027
6 15 10 100 0.294215
7 15 10 100 0.000589332
8 15 10 100 0.0281644
9 15 10 100 0.0175586
10 15 10 100 0.42986
0 1 11 100 1.21162e-06
1 1 11 100 0.499591
2 1 11 100 0.137336
3 1 11 100 0.102504
4 1 11 100 0.0471986
5 1 11 100 0.0351019
6 1 11 100 0.0292452
7 1 11 100 0.0273923
8 1 11 100 0.0159425
9 1 11 100 0.0296481
10 1 11 100 0.0376391
11 1 11 100 0.0383988
0 2 11 100 0.0933524
1 2 11 100 0.0776798
2 2 11 100 0.205646
3 2 11 100 0.15337
4 2 11 100 0.110966
5 2 11 100 0.0713872
6 2 11 100 0.0506167
7 2 11 100 0.0492252
8 2 11 100 0.04178
9 2 11 100 0.0436749
10 2 11 100 0.0568679
11 2 11 100 0.0454334
0 3 11 100 0.100265
1 3 11 100 0.0415087
2 3 11 100 0.0675274
3 3 11 100 0.154348
4 3 11 100 0.128482
5 3 11 100 0.112935
6 3 11 100 0.0732095
7 3 11 100 0.0694937
8 3 11 100 0.060109
9 3 11 100 0.0546448
10 3 11 100 0.0740482
11 3 11 100 0.0634289
0 4 11 100 0.102592
1 4 11 100 0.0265389
2 4 11 100 0.0383492
3 4 11 100 0.0747296
4 4 11 100 0.131881
5 4 11 100 0.117769
6 4 11 100 0.100448
7 4 11 100 0.0899449
8 4 11 100 0.0797689
9 4 11 100 0.0737445
10 4 11 100 0.0797593
11 4 11 100 0.0844753
0 5 11 100 0.107556
1 5 11 100 0.0224506
2 5 11 100 0.0248911
3 5 11 100 0.0486373
4 5 11 100 0.0749362
5 5 11 100 0.105564
6 5 11 100 0.105454
7 5 11 100 0.102132
8 5 11 100 0.100534
9 5 11 100 0.0913174
10 5 11 100 0.105667
11 5 11 100 0.11086
0 6 11 100 0.0915715
1 6 11 100 0.0159759
2 6 11 100 0.0180001
3 6 11 100 0.033891
4 6 11 100 0.0599133
5 6 11 100 0.0773317
6 6 11 100 0.0955473
7 6 11 100 0.10942
8 6 11 100 0.109837
9 6 11 100 0.109441
10 6 11 100 0.108714
11 6 11 100 0.170357
0 7 11 100 0.0895317
1 7 11 100 0.0104191
2 7 11 100 0.0150074
3 7 11 100 0.0278568
4 7 11 100 0.042556
5 7 11 100 0.0603308
6 7 11 100 0.0757425
7 7 11 100 0.102617
8 7 11 100 0.125383
9 7 11 100 0.102007
10 7 11 100 0.137034
11 7 11 100 0.211513
0 8 11 100 0.0907356
1 8 11 100 0.00888853
2 8 11 100 0.00871108
3 8 11 100 0.025781
4 8 11 100 0.0424634
5 8 11 100 0.0459228
6 8 11 100 0.055718
7 8 11 100 0.0803973
8 8 11 100 0.099781
9 8 11 100 0.120219
10 8 11 100 0.149001
11 8 11 100 0.27238
0 9 11 100 0.108558
1 9 11 100 0.00853976
2 9 11 100 0.00631672
3 9 11 100 0.0163098
4 9 11 100 0.0330787
5 9 11 100 0.0561677
6 9 11 100 0.0435145
7 9 11 100 0.058838
8 9 11 100 0.0795037
9 9 11 100 0.0979079
10 9 11 100 0.163234
11 9 11 100 0.328031
0 10 11 100 0.103236
1 10 11 100 0.00706852
2 10 11 100 0.0047763
3 10 11 100 0.0175786
4 10 11 100 0.0254071
5 10 11 100 0.0526526
6 10 11 100 0.0405036
7 10 11 100 0.070384
8 10 11 100 0.0651497
9 10 11 100 0.0867183
10 10 11 100 0.156049
11 10 11 100 0.370476
0 11 11 100 0.0892943
1 11 11 100 0.00118053
2 11 11 100 0.0137058
3 11 11 100 0.00987684
4 11 11 100 0.0218772
5 11 11 100 0.058548
6 11 11 100 0.0454003
7 11 11 100 0.0603549
8 11 11 100 0.0690878
9 11 11 100 0.0828815
10 11 11 100 0.142889
11 11 11 100 0.404904
0 12 11 100 0.0993964
1 12 11 100 0.00074599
2 12 11 100 0.00714612
3 12 11 100 0.0221994
4 12 11 100 0.0282525
5 12 11 100 0.0691857
6 12 11 100 0.0225534
7 12 11 100 0.0724404
8 12 11 100 0.0628386
9 12 11 100 0.10184
10 12 11 100 0.127512
11 12 11 100 0.385889
0 13 11 100 0.132901
1 13 11 100 0.000566193
2 13 11 100 0.0138399
3 13 11 100 0.0301843
4 13 11 100 0.01388
5 13 11 100 0.0589663
6 13 11 100 0.0760104
7 13 11 100 0.0209672
8 13 11 100 0.0583989
9 13 11 100 0.0666491
10 13 11 100 0.0948477
11 13 11 100 0.432789
0 14 11 100 0.054421
1 14 11 100 0.00103481
2 14 11 100 5.55877e-05
3 14 11 100 0.0011196
4 14 11 100 0.012243
5 14 11 100 0.0320373
6 14 11 100 0.0281742
7 14 11 100 0.0642064
8 14 11 100 0.0720865
9 14 11 100 0.0895887
10 14 11 100 0.177789
11 14 11 100 0.467244
0 15 11 100 0.417652
1 15 11 100 0.000266399
2 15 11 100 0.00123018
3 15 11 100 0.00800337
4 15 11 100 0.00570961
5 15 11 100 0.000966449
6 15 11 100 0.000353054
7 15 11 100 0.143506
8 15 11 100 0.00369632
9 15 11 100 0.14471
10 15 11 100 0.155906
11 15 11 100 0.118
0 16 11 100 0.232203
1 16 11 100 3.7426e-05
2 16 11 100 0.000187677
4 16 11 100 0.000843089
5 16 11 100 7.90501e-06
6 16 11 100 0.00900844
7 16 11 100 0.00692215
8 16 11 100 0.00133672
9 16 11 100 0.254071
10 16 11 100 7.59798e-05
11 16 11 100 0.495306
0 17 11 100 0.0201896
1 17 11 100 0.00445796
2 17 11 100 0.000186977
3 17 11 100 5.63819e-07
4 17 11 100 0.00022891
5 17 11 100 0.000198464
6 17 11 100 0.000207743
7 17 11 100 0.312691
8 17 11 100 0.136843
9 17 11 100 1.34491e-05
10 17 11 100 0.369506
11 17 11 100 0.155476
0 18 11 100 9.41174e-05
1 18 11 100 1.24274e-07
2 18 11 100 1.10795e-05
3 18 11 100 0.0329428
4 18 11 100 8.57251e-07
5 18 11 100 1.61433e-06
6 18 11 100 1.39233e-05
7 18 11 100 0.951536
8 18 11 100 4.61099e-05
9 18 11 100 7.75887e-05
10 18 11 100 5.42879e-06
11 18 11 100 0.0152704
0 1 12 100 1.55173e-06
1 1 12 100 0.487989
2 1 12 100 0.13594
3 1 12 100 0.0998026
4 1 12 100 0.0433793
5 1 12 100 0.0417762
6 1 12 100 0.0243789
7 1 12 100 0.0251879
8 1 12 100 0.0286391
9 1 12 100 0.0245319
10 1 12 100 0.0261615
11 1 12 100 0.0275
12 1 12 100 0.0347123
0 2 12 100 0.101509
1 2 12 100 0.0830562
2 2 12 100 0.19047
3 2 12 100 0.151672
4 2 12 100 0.119278
5 2 12 100 0.0725439
6 2 12 100 0.0515989
7 2 12 100 0.0410202
8 2 12 100 0.0345269
9 2 12 100 0.039451
10 2 12 100 0.0320375
11 2 12 100 0.0434106
12 2 12 100 0.0394249
0 3 12 100 0.0929487
1 3 12 100 0.0339661
2 3 12 100 0.0682257
3 3 12 100 0.151875
4 3 12 100 0.142609
5 3 12 100 0.112639
6 3 12 100 0.0882148
7 3 12 100 0.0555289
8 3 12 100 0.0514621
9 3 12 100 0.0477044
10 3 12 100 0.0427866
11 3 12 100 0.0564517
12 3 12 100 0.0555871
0 4 12 100 0.103538
1 4 12 100 0.0271256
2 4 12 100 0.0333297
3 4 12 100 0.0687359
4 4 12 100 0.115076
5 4 12 100 0.126002
6 4 12 100 0.120939
7 4 12 100 0.0789688
8 4 12 100 0.0687851
9 4 12 100 0.0679344
10 4 12 100 0.0572344
11 4 12 100 0.06318
12 4 12 100 0.0691513
0 5 12 100 0.101026
1 5 12 100 0.023246
2 5 12 100 0.0265831
3 5 12 100 0.0359566
4 5 12 100 0.0662168
5 5 12 100 0.103418
6 5 12 100 0.108045
7 5 12 100 0.103434
8 5 12 100 0.0990771
9 5 12 100 0.0812382
10 5 12 100 0.075822
11 5 12 100 0.0829702
12 5 12 100 0.0929674
0 6 12 100 0.092333
1 6 12 100 0.013538
2 6 12 100 0.0216256
3 6 12 100 0.0322838
4 6 12 100 0.0501474
5 6 12 100 0.0691842
6 6 12 100 0.0771011
7 6 12 100 0.0987831
8 6 12 100 0.11164
9 6 12 100 0.107392
10 6 12 100 0.0951309
11 6 12 100 0.108618
12 6 12 100 0.122224
0 7 12 100 0.097548
1 7 12 100 0.00710113
2 7 12 100 0.0144626
3 7 12 100 0.0292312
4 7 12 100 0.0350604
5 7 12 100 0.0568171
6 7 12 100 0.0656318
7 7 12 100 0.0691127
8 7 12 100 0.0924341
9 7 12 100 0.110549
10 7 12 100 0.115683
11 7 12 100 0.130635
12 7 12 100 0.175734
0 8 12 100 0.0966183
1 8 12 100 0.00773324
2 8 12 100 0.0102986
3 8 12 100 0.0296275
4 8 12 100 0.0320055
5 8 12 100 0.0437709
6 8 12 100 0.0452457
7 8 12 100 0.0592295
8 8 12 100 0.0922752
9 8 12 100 0.103073
10 8 12 100 0.110792
11 8 12 100 0.156098
12 8 12 100 0.213232
0 9 12 100 0.0938878
1 9 12 100 0.00895912
2 9 12 100 0.0113559
3 9 12 100 0.0150232
4 9 12 100 0.0307612
5 9 12 100 0.0370352
6 9 12 100 0.0449004
7 9 12 100 0.0567006
8 9 12 100 0.0833801
9 9 12 100 0.093815
10 9 12 100 0.0993356
11 9 12 100 0.136304
12 9 12 100 0.288542
0 10 12 100 0.0797887
1 10 12 100 0.00609558
2 10 12 100 0.00646378
3 10 12 100 0.0163441
4 10 12 100 0.0354282
5 10 12 100 0.0331191
6 10 12 100 0.0404032
7 10 12 100 0.0509695
8 10 12 100 0.0521571
9 10 12 100 0.0825533
10 10 12 100 0.128555
11 10 12 100 0.16582
12 10 12 100 0.302303
0 11 12 100 0.0900642
1 11 12 100 0.00625893
2 11 12 100 0.00134295
3 11 12 100 0.0123603
4 11 12 100 0.0322788
5 11 12 100 0.0260982
6 11 12 100 0.0412243
7 11 12 100 0.0581525
8 11 12 100 0.0609878
9 11 12 100 0.0687142
10 11 12 100 0.0760986
11 11 12 100 0.160242
12 11 12 100 0.366177
0 12 12 100 0.11579
1 12 12 100 0.00198145
2 12 12 100 0.00689587
3 12 12 100 0.00722295
4 12 12 100 0.0294874
5 12 12 100 0.0252573
6 12 12 100 0.0596086
7 12 12 100 0.0324708
8 12 12 100 0.0777818
9 12 12 100 0.0384874
10 12 12 100 0.0760055
11 12 12 100 0.0997245
12 12 12 100 0.429287
0 13 12 100 0.117402
1 13 12 100 0.00206112
2 13 12 100 0.0102852
3 13 12 100 0.0184047
4 13 12 100 0.0128033
5 13 12 100 0.0249015
6 13 12 100 0.0580915
7 13 12 100 0.0342843
8 13 12 100 0.047819
9 13 12 100 0.0765773
10 13 12 100 0.0663806
11 13 12 100 0.110292
12 13 12 100 0.420698
0 14 12 100 0.0574433
1 14 12 100 0.000765143
2 14 12 100 0.00243765
3 14 12 100 0.0060905
4 14 12 100 0.0295349
5 14 12 100 0.0158598
6 14 12 100 0.0528341
7 14 12 100 0.0434235
8 14 12 100 0.0878214
9 14 12 100 0.0778942
10 14 12 100 0.10593
11 14 12 100 0.101284
12 14 12 100 0.418681
0 15 12 100 0.0587799
1 15 12 100 0.000192884
2 15 12 100 0.00150973
3 15 12 100 0.00314721
4 15 12 100 0.0277527
5 15 12 100 0.0205833
6 15 12 100 0.0113545
7 15 12 100 0.0602524
8 15 12 100 0.0644251
9 15 12 100 0.0131474
10 15 12 100 0.185886
11 15 12 100 0.0336754
12 15 12 100 0.519293
0 16 12 100 0.0272212
1 16 12 100 0.00151374
2 16 12 100 6.98118e-05
3 16 12 100 0.0448059
4 16 12 100 0.00171482
5 16 12 100 0.144466
6 16 12 100 0.0028022
7 16 12 100 0.104478
8 16 12 100 0.0139101
9 16 12 100 0.0993737
10 16 12 100 0.0021921
11 16 12 100 0.0904565
12 16 12 100 0.466995
0 17 12 100 0.0149159
1 17 12 100 0.00253545
2 17 12 100 0.00184689
3 17 12 100 9.53336e-05
4 17 12 100 0.00148611
5 17 12 100 0.323358
6 17 12 100 1.02382e-05
7 17 12 100 0.00107955
8 17 12 100 0.0584278
9 17 12 100 0.000219583
10 17 12 100 0.0994408
11 17 12 100 0.000235333
12 17 12 100 0.496349
0 1 13 100 8.62984e-07
1 1 13 100 0.486893
2 1 13 100 0.142732
3 1 13 100 0.105034
4 1 13 100 0.0604967
5 1 13 100 0.0260622
6 1 13 100 0.0345378
7 1 13 100 0.0248297
8 1 13 100 0.012727
9 1 13 100 0.0168107
10 1 13 100 0.019851
11 1 13 100 0.0239574
12 1 13 100 0.0232231
13 1 13 100 0.0228447
0 2 13 100 0.099609
1 2 13 100 0.0762893
2 2 13 100 0.197291
3 2 13 100 0.154958
4 2 13 100 0.115769
5 2 13 100 0.0718636
6 2 13 100 0.0493742
7 2 13 100 0.0428166
8 2 13 100 0.0329676
9 2 13 100 0.0295928
10 2 13 100 0.0317614
11 2 13 100 0.0287675
12 2 13 100 0.0392188
13 2 13 100 0.0297212
0 3 13 100 0.100379
1 3 13 100 0.0434543
2 3 13 100 0.0667832
3 3 13 100 0.142372
4 3 13 100 0.137948
5 3 13 100 0.105986
6 3 13 100 0.0792194
7 3 13 100 0.0607242
8 3 13 100 0.0455465
9 3 13 100 0.0481136
10 3 13 100 0.035134
11 3 13 100 0.0384056
12 3 13 100 0.0478287
13 3 13 100 0.048105
0 4 13 100 0.102444
1 4 13 100 0.0208219
2 4 13 100 0.0329949
3 4 13 100 0.064248
4 4 13 100 0.115631
5 4 13 100 0.126643
6 4 13 100 0.10939
7 4 13 100 0.081624
8 4 13 100 0.0717657
9 4 13 100 0.0579485
10 4 13 100 0.0448641
11 4 13 100 0.0521226
12 4 13 100 0.0561072
13 4 13 100 0.0633966
0 5 13 100 0.111971
1 5 13 100 0.0132727
2 5 13 100 0.0191081
3 5 13 100 0.0424381
4 5 13 100 0.060034
5 5 13 100 0.0932847
6 5 13 100 0.110768
7 5 13 100 0.112609
8 5 13 100 0.0890603
9 5 13 100 0.0735551
10 5 13 100 0.0735073
11 5 13 100 0.0563473
12 5 13 100 0.069006
13 5 13 100 0.0750377
0 6 13 100 0.101997
1 6 13 100 0.0106699
2 6 13 100 0.0164039
3 6 13 100 0.0284811
4 6 13 100 0.0486334
5 6 13 100 0.0704114
6 6 13 100 0.0841644
7 6 13 100 0.101961
8 6 13 100 0.108573
9 6 13 100 0.0839259
10 6 13 100 0.0755962
11 6 13 100 0.0736211
12 6 13 100 0.088918
13 6 13 100 0.106643
0 7 13 100 0.0982008
1 7 13 100 0.00855603
2 7 13 100 0.0137013
3 7 13 100 0.0256688
4 7 13 100 0.0311767
5 7 13 100 0.0417747
6 7 13 100 0.0583385
7 7 13 100 0.0808904
8 7 13 100 0.0990611
9 7 13 100 0.0987675
10 7 13 100 0.0905449
11 7 13 100 0.0914952
12 7 13 100 0.104985
13 7 13 100 0.156839
0 8 13 100 0.0858039
1 8 13 100 0.00746437
2 8 13 100 0.0139309
3 8 13 100 0.0156718
4 8 13 100 0.0277144
5 8 13 100 0.0356581
6 8 13 100 0.0390158
7 8 13 100 0.0470473
8 8 13 100 0.0849458
9 8 13 100 0.0952881
10 8 13 100 0.118662
11 8 13 100 0.107733
12 8 13 100 0.123559
13 8 13 100 0.197506
0 9 13 100 0.0902035
1 9 13 100 0.0109048
2 9 13 100 0.00911687
3 9 13 100 0.0160689
4 9 13 100 0.0245672
5 9 13 100 0.0249915
6 9 13 100 0.0307001
7 9 13 100 0.0360288
8 9 13 100 0.064102
9 9 13 100 0.0806556
10 9 13 100 0.0987429
11 9 13 100 0.116724
12 9 13 100 0.15061
13 9 13 100 0.246584
0 10 13 100 0.0975467
1 10 13 100 0.00704142
2 10 13 100 0.00877236
3 10 13 100 0.0142139
4 10 13 100 0.0218823
5 10 13 100 0.026519
6 10 13 100 0.0318527
7 10 13 100 0.0405532
8 10 13 100 0.0390674
9 10 13 100 0.0561257
10 10 13 100 0.0937593
11 10 13 100 0.114779
12 10 13 100 0.16524
13 10 13 100 0.282647
0 11 13 100 0.0972136
1 11 13 100 0.00353326
2 11 13 100 0.0155132
3 11 13 100 0.0114607
4 11 13 100 0.0220812
5 11 13 100 0.0202821
6 11 13 100 0.0241028
7 11 13 100 0.0339828
8 11 13 100 0.0302147
9 11 13 100 0.0508369
10 11 13 100 0.0820488
11 11 13 100 0.103429
12 11 13 100 0.155403
13 11 13 100 0.349898
0 12 13 100 0.0951497
1 12 13 100 0.00621851
2 12 13 100 0.00903441
3 12 13 100 0.0219774
4 12 13 100 0.0154394
5 12 13 100 0.0243533
6 12 13 100 0.0283187
7 12 13 100 0.0276596
8 12 13 100 0.0385136
9 12 13 100 0.0390852
10 12 13 100 0.0634586
11 12 13 100 0.0869241
12 12 13 100 0.172473
13 12 13 100 0.371394
0 13 13 100 0.0706465
1 13 13 100 0.0059559
2 13 13 100 0.0073274
3 13 13 100 0.0165896
4 13 13 100 0.0278113
5 13 13 100 0.0215803
6 13 13 100 0.0152855
7 13 13 100 0.0303432
8 13 13 100 0.0249356
9 13 13 100 0.0570622
10 13 13 100 0.0474342
11 13 13 100 0.0694116
12 13 13 100 0.158472
13 13 13 100 0.447145
0 14 13 100 0.147777
1 14 13 100 0.000589126
2 14 13 100 0.0232898
3 14 13 100 0.00230876
4 14 13 100 0.0128255
5 14 13 100 0.0160055
6 14 13 100 0.0184828
7 14 13 100 0.0218099
8 14 13 100 0.0435911
9 14 13 100 0.0524551
10 14 13 100 0.0592036
11 14 13 100 0.0699157
12 14 13 100 0.180064
13 14 13 100 0.351682
0 15 13 100 0.0232826
1 15 13 100 0.0105639
2 15 13 100 0.000925922
3 15 13 100 0.0229002
4 15 13 100 0.00035855
5 15 13 100 0.0230004
6 15 13 100 0.0385218
7 15 13 100 0.0188852
8 15 13 100 0.0376632
9 15 13 100 0.0372356
10 15 13 100 0.0473346
11 15 13 100 0.0101164
12 15 13 100 0.20951
13 15 13 100 0.519702
0 16 13 100 0.134986
1 16 13 100 0.0327458
2 16 13 100 0.000455946
3 16 13 100 0.00174176
4 16 13 100 0.0335324
5 16 13 100 0.000284942
6 16 13 100 0.0156308
7 16 13 100 0.0528885
8 16 13 100 0.0166611
9 16 13 100 0.0148025
10 16 13 100 0.106521
11 16 13 100 0.046414
12 16 13 100 0.0698972
13 16 13 100 0.473438
0 17 13 100 0.0355874
1 17 13 100 0.0534926
2 17 13 100 0.00808803
3 17 13 100 0.00141685
4 17 13 100 0.0840441
5 17 13 100 9.44875e-07
6 17 13 100 0.0433587
7 17 13 100 0.0519279
8 17 13 100 0.115487
9 17 13 100 0.0143558
10 17 13 100 8.37417e-05
11 17 13 100 0.017818
12 17 13 100 0.0106247
13 17 13 100 0.563715
0 18 13 100 0.0123603
1 18 13 100 0.0669235
2 18 13 100 9.29843e-06
3 18 13 100 1.08762e-05
4 18 13 100 6.03639e-07
5 18 13 100 0.00696357
6 18 13 100 0.146482
7 18 13 100 1.57194e-05
8 18 13 100 5.8875e-07
9 18 13 100 0.0161983
10 18 13 100 1.58238e-05
11 18 13 100 1.30295e-05
12 18 13 100 0.00145948
13 18 13 100 0.749547
0 19 13 100 0.0461967
1 19 13 100 0.000205184
2 19 13 100 0.0281621
3 19 13 100 0.000541142
4 19 13 100 0.00922863
5 19 13 100 0.160144
6 19 13 100 6.43304e-06
7 19 13 100 0.534081
8 19 13 100 0.00213416
9 19 13 100 0.000402608
10 19 13 100 0.123937
11 19 13 100 5.94361e-05
12 19 13 100 0.0905467
13 19 13 100 0.00435524
0 1 14 100 5.3595e-07
1 1 14 100 0.50704
2 1 14 100 0.133293
3 1 14 100 0.111538
4 1 14 100 0.0480662
5 1 14 100 0.028868
6 1 14 100 0.0270513
7 1 14 100 0.0257004
8 1 14 100 0.0143043
9 1 14 100 0.0223619
10 1 14 100 0.0186551
11 1 14 100 0.0118318
12 1 14 100 0.0144957
13 1 14 100 0.0179053
14 1 14 100 0.0188888
0 2 14 100 0.103205
1 2 14 100 0.0839342
2 2 14 100 0.201438
3 2 14 100 0.150485
4 2 14 100 0.113511
5 2 14 100 0.0681528
6 2 14 100 0.0507141
7 2 14 100 0.0387022
8 2 14 100 0.0302042
9 2 14 100 0.0305234
10 2 14 100 0.0259661
11 2 14 100 0.0193726
12 2 14 100 0.0228562
13 2 14 100 0.032457
14 2 14 100 0.028479
0 3 14 100 0.0979106
1 3 14 100 0.0300236
2 3 14 100 0.0762887
3 3 14 100 0.137476
4 3 14 100 0.145344
5 3 14 100 0.112296
6 3 14 100 0.0757919
7 3 14 100 0.0632861
8 3 14 100 0.0486375
9 3 14 100 0.0433968
10 3 14 100 0.0314104
11 3 14 100 0.0258931
12 3 14 100 0.0307553
13 3 14 100 0.0437508
14 3 14 100 0.0377397
0 4 14 100 0.103812
1 4 14 100 0.0284636
2 4 14 100 0.028559
3 4 14 100 0.0738604
4 4 14 100 0.11458
5 4 14 100 0.117992
6 4 14 100 0.0971732
7 4 14 100 0.0815518
8 4 14 100 0.0772775
9 4 14 100 0.0540584
10 4 14 100 0.0463737
11 4 14 100 0.044157
12 4 14 100 0.037556
13 4 14 100 0.0484975
14 4 14 100 0.0460873
0 5 14 100 0.0967708
1 5 14 100 0.0181348
2 5 14 100 0.0194764
3 5 14 100 0.0405553
4 5 14 100 0.0711321
5 5 14 100 0.097098
6 5 14 100 0.103216
7 5 14 100 0.0913351
8 5 14 100 0.0885101
9 5 14 100 0.0749512
10 5 14 100 0.0576508
11 5 14 100 0.0584545
12 5 14 100 0.0603223
13 5 14 100 0.0640968
14 5 14 100 0.058296
0 6 14 100 0.0982705
1 6 14 100 0.0113367
2 6 14 100 0.0181381
3 6 14 100 0.0313141
4 6 14 100 0.0396771
5 6 14 100 0.0604847
6 6 14 100 0.0822527
7 6 14 100 0.0945866
8 6 14 100 0.102962
9 6 14 100 0.0754959
10 6 14 100 0.0837334
11 6 14 100 0.0638729
12 6 14 100 0.0685649
13 6 14 100 0.0810436
14 6 14 100 0.0882671
0 7 14 100 0.0914315
1 7 14 100 0.013947
2 7 14 100 0.00674114
3 7 14 100 0.0214161
4 7 14 100 0.0363643
5 7 14 100 0.0447104
6 7 14 100 0.0489284
7 7 14 100 0.0717239
8 7 14 100 0.0990001
9 7 14 100 0.088376
10 7 14 100 0.0743844
11 7 14 100 0.10585
12 7 14 100 0.0795532
13 7 14 100 0.0983418
14 7 14 100 0.119232
0 8 14 100 0.108539
1 8 14 100 0.0116327
2 8 14 100 0.00804496
3 8 14 100 0.0187054
4 8 14 100 0.026194
5 8 14 100 0.029104
6 8 14 100 0.0399623
7 8 14 100 0.0462552
8 8 14 100 0.0641354
9 8 14 100 0.0941764
10 8 14 100 0.0903105
11 8 14 100 0.0964706
12 8 14 100 0.105904
13 8 14 100 0.115827
14 8 14 100 0.14474
0 9 14 100 0.0977959
1 9 14 100 0.0104377
2 9 14 100 0.0100044
3 9 14 100 0.0145513
4 9 14 100 0.0219843
5 9 14 100 0.0252547
6 9 14 100 0.0379295
7 9 14 100 0.0404109
8 9 14 100 0.0414586
9 9 14 100 0.0731929
10 9 14 100 0.0932682
11 9 14 100 0.114936
12 9 14 100 0.103751
13 9 14 100 0.12876
14 9 14 100 0.186264
0 10 14 100 0.0863129
1 10 14 100 0.00915864
2 10 14 100 0.00833142
3 10 14 100 0.0119671
4 10 14 100 0.0160392
5 10 14 100 0.0225901
6 10 14 100 0.0281425
7 10 14 100 0.0278435
8 10 14 100 0.0415791
9 10 14 100 0.056956
10 10 14 100 0.070555
11 10 14 100 0.112847
12 10 14 100 0.122332
13 10 14 100 0.144891
14 10 14 100 0.240455
0 11 14 100 0.0976753
1 11 14 100 0.00477976
2 11 14 100 0.00810974
3 11 14 100 0.00955318
4 11 14 100 0.0159303
5 11 14 100 0.0218121
6 11 14 100 0.02512
7 11 14 100 0.0309635
8 11 14 100 0.0193952
9 11 14 100 0.0557526
10 11 14 100 0.0710677
11 11 14 100 0.0951136
12 11 14 100 0.1156
13 11 14 100 0.160649
14 11 14 100 0.268478
0 12 14 100 0.0897088
1 12 14 100 0.0029965
2 12 14 100 0.00675384
3 12 14 100 0.0080778
4 12 14 100 0.00713365
5 12 14 100 0.0107562
6 12 14 100 0.0192665
7 12 14 100 0.0183227
8 12 14 100 0.0297996
9 12 14 100 0.0465874
10 12 14 100 0.0451807
11 12 14 100 0.0887902
12 12 14 100 0.119313
13 12 14 100 0.183713
14 12 14 100 0.3236
0 13 14 100 0.0781195
1 13 14 100 0.000249498
2 13 14 100 0.00451947
3 13 14 100 0.0057422
4 13 14 100 0.00746214
5 13 14 100 0.0125569
6 13 14 100 0.0204255
7 13 14 100 0.0190767
8 13 14 100 0.0261002
9 13 14 100 0.0402373
10 13 14 100 0.0441541
11 13 14 100 0.0663209
12 13 14 100 0.104558
13 13 14 100 0.164239
14 13 14 100 0.406239
0 14 14 100 0.0874383
1 14 14 100 0.000238223
2 14 14 100 0.0099068
3 14 14 100 0.000255156
4 14 14 100 0.0100102
5 14 14 100 0.00284342
6 14 14 100 0.0143709
7 14 14 100 0.01789
8 14 14 100 0.028179
9 14 14 100 0.0491688
10 14 14 100 0.0354453
11 14 14 100 0.0833757
12 14 14 100 0.0755812
13 14 14 100 0.171412
14 14 14 100 0.413885
0 15 14 100 0.0576943
1 15 14 100 0.000249887
2 15 14 100 0.00217092
3 15 14 100 0.000262992
4 15 14 100 0.0346592
5 15 14 100 0.00436928
6 15 14 100 0.0141991
7 15 14 100 0.00914749
8 15 14 100 0.0219914
9 15 14 100 0.043804
10 15 14 100 0.0827961
11 15 14 100 0.104175
12 15 14 100 0.0381938
13 15 14 100 0.116055
14 15 14 100 0.470232
0 16 14 100 0.0697056
1 16 14 100 3.62084e-07
2 16 14 100 0.00059901
3 16 14 100 6.7192e-05
4 16 14 100 0.022839
5 16 14 100 0.00107734
6 16 14 100 0.0258665
7 16 14 100 0.00187697
8 16 14 100 0.0137369
9 16 14 100 0.0283271
10 16 14 100 0.00267952
11 16 14 100 0.0627486
12 16 14 100 0.0526123
13 16 14 100 0.139131
14 16 14 100 0.578733
0 17 14 100 0.00908569
1 17 14 100 0.00013409
2 17 14 100 0.000937377
3 17 14 100 2.35258e-05
4 17 14 100 0.00212599
5 17 14 100 0.00123351
6 17 14 100 0.0339697
7 17 14 100 0.00788931
8 17 14 100 0.004844
9 17 14 100 0.00124332
10 17 14 100 0.0115007
11 17 14 100 0.0354147
12 17 14 100 0.113517
13 17 14 100 0.380321
14 17 14 100 0.39776
0 18 14 100 0.243716
1 18 14 100 0.000140641
2 18 14 100 0.00041241
3 18 14 100 2.10289e-06
4 18 14 100 1.51502e-05
5 18 14 100 9.40788e-05
6 18 14 100 8.54196e-05
7 18 14 100 0.000372578
8 18 14 100 0.00132015
9 18 14 100 0.0337978
10 18 14 100 0.000135317
11 18 14 100 0.000786891
12 18 14 100 0.000104566
13 18 14 100 0.528625
14 18 14 100 0.190392
0 19 14 100 3.66887e-06
1 19 14 100 3.09739e-06
2 19 14 100 2.4321e-07
4 19 14 100 8.01861e-07
5 19 14 100 6.12444e-07
6 19 14 100 1.81686e-07
7 19 14 100 3.29255e-05
9 19 14 100 0.00030071
11 19 14 100 1.68337e-07
12 19 14 100 1.18483e-07
13 19 14 100 0.000835614
14 19 14 100 0.998822
0 1 15 100 5.39848e-06
1 1 15 100 0.537058
2 1 15 100 0.138144
3 1 15 100 0.0873102
4 1 15 100 0.0396156
5 1 15 100 0.0213678
6 1 15 100 0.0376827
7 1 15 100 0.0319598
8 1 15 100 0.0234187
9 1 15 100 0.00957926
10 1 15 100 0.0126472
11 1 15 100 0.00728913
12 1 15 100 0.00324919
13 1 15 100 0.00946039
14 1 15 100 0.0214096
15 1 15 100 0.0198024
0 2 15 100 0.0993414
1 2 15 100 0.0739512
2 2 15 100 0.221815
3 2 15 100 0.173078
4 2 15 100 0.0978473
5 2 15 100 0.063382
6 2 15 100 0.0539314
7 2 15 100 0.0471212
8 2 15 100 0.0330973
9 2 15 100 0.019651
10 2 15 100 0.0218422
11 2 15 100 0.0199466
12 2 15 100 0.0127063
13 2 15 100 0.0139483
14 2 15 100 0.0185469
15 2 15 100 0.0297935
0 3 15 100 0.102713
1 3 15 100 0.0388366
2 3 15 100 0.0744268
3 3 15 100 0.145887
4 3 15 100 0.148999
5 3 15 100 0.099776
6 3 15 100 0.0861158
7 3 15 100 0.0643655
8 3 15 100 0.0475091
9 3 15 100 0.0347193
10 3 15 100 0.0305373
11 3 15 100 0.0234338
12 3 15 100 0.0225622
13 3 15 100 0.0240735
14 3 15 100 0.0243231
15 3 15 100 0.0317217
0 4 15 100 0.0988666
1 4 15 100 0.0179924
2 4 15 100 0.0330499
3 4 15 100 0.0830344
4 4 15 100 0.106186
5 4 15 100 0.142434
6 4 15 100 0.108215
7 4 15 100 0.0847843
8 4 15 100 0.0685263
9 4 15 100 0.0452632
10 4 15 100 0.0376771
11 4 15 100 0.0404011
12 4 15 100 0.0347857
13 4 15 100 0.0287901
14 4 15 100 0.0345274
15 4 15 100 0.0354665
0 5 15 100 0.101054
1 5 15 100 0.0201372
2 5 15 100 0.0157831
3 5 15 100 0.0421541
4 5 15 100 0.0740531
5 5 15 100 0.095847
6 5 15 100 0.108444
7 5 15 100 0.100437
8 5 15 100 0.0883128
9 5 15 100 0.0622628
10 5 15 100 0.0535264
11 5 15 100 0.0530115
12 5 15 100 0.0451569
13 5 15 100 0.0418367
14 5 15 100 0.0500973
15 5 15 100 0.0478864
0 6 15 100 0.110519
1 6 15 100 0.0145832
2 6 15 100 0.0176813
3 6 15 100 0.0307353
4 6 15 100 0.0380194
5 6 15 100 0.0685892
6 6 15 100 0.082185
7 6 15 100 0.0913639
8 6 15 100 0.0978453
9 6 15 100 0.0803856
10 6 15 100 0.0657213
11 6 15 100 0.0595808
12 6 15 100 0.0627348
13 6 15 100 0.0516566
14 6 15 100 0.0599327
15 6 15 100 0.0684663
0 7 15 100 0.104741
1 7 15 100 0.0078837
2 7 15 100 0.0121206
3 7 15 100 0.0227231
4 7 15 100 0.0399143
5 7 15 100 0.0329273
6 7 15 100 0.0573189
7 7 15 100 0.0761853
8 7 15 100 0.0891837
9 7 15 100 0.0932005
10 7 15 100 0.0847418
11 7 15 100 0.0746654
12 7 15 100 0.065791
13 7 15 100 0.0699158
14 7 15 100 0.0800807
15 7 15 100 0.0886068
0 8 15 100 0.0999041
1 8 15 100 0.00981242
2 8 15 100 0.0151021
3 8 15 100 0.0154123
4 8 15 100 0.0253792
5 8 15 100 0.0219338
6 8 15 100 0.0314174
7 8 15 100 0.0516671
8 8 15 100 0.0617428
9 8 15 100 0.0865035
10 8 15 100 0.103745
11 8 15 100 0.0847123
12 8 15 100 0.0853802
13 8 15 100 0.0792179
14 8 15 100 0.10078
15 8 15 100 0.12729
0 9 15 100 0.0845556
1 9 15 100 0.00542314
2 9 15 100 0.00908749
3 9 15 100 0.0118981
4 9 15 100 0.0226708
5 9 15 100 0.0215532
6 9 15 100 0.0258558
7 9 15 100 0.0346468
8 9 15 100 0.0474531
9 9 15 100 0.0693651
10 9 15 100 0.0869376
11 9 15 100 0.0969346
12 9 15 100 0.106545
13 9 15 100 0.0973451
14 9 15 100 0.127454
15 9 15 100 0.152275
0 10 15 100 0.0821317
1 10 15 100 0.00358208
2 10 15 100 0.00474187
3 10 15 100 0.013307
4 10 15 100 0.0132145
5 10 15 100 0.0178348
6 10 15 100 0.0275033
7 10 15 100 0.0192075
8 10 15 100 0.0327675
9 10 15 100 0.0535138
10 10 15 100 0.0767747
11 10 15 100 0.0939439
12 10 15 100 0.111828
13 10 15 100 0.106871
14 10 15 100 0.128886
15 10 15 100 0.213892
0 11 15 100 0.104372
1 11 15 100 0.00623692
2 11 15 100 0.00555569
3 11 15 100 0.00893809
4 11 15 100 0.0116012
5 11 15 100 0.0136749
6 11 15 100 0.0151431
7 11 15 100 0.0260033
8 11 15 100 0.0286413
9 11 15 100 0.0448855
10 11 15 100 0.0617033
11 11 15 100 0.0723069
12 11 15 100 0.109976
13 11 15 100 0.138766
14 11 15 100 0.139364
15 11 15 100 0.212832
0 12 15 100 0.0828245
1 12 15 100 0.0111143
2 12 15 100 0.00476922
3 12 15 100 0.0107671
4 12 15 100 0.0145106
5 12 15 100 0.013307
6 12 15 100 0.0118287
7 12 15 100 0.0238511
8 12 15 100 0.0147709
9 12 15 100 0.0415487
10 12 15 100 0.0483185
11 12 15 100 0.0623436
12 12 15 100 0.0800034
13 12 15 100 0.134143
14 12 15 100 0.158638
15 12 15 100 0.287261
0 13 15 100 0.0933017
1 13 15 100 0.012661
2 13 15 100 0.00634238
3 13 15 100 0.0114247
4 13 15 100 0.0173608
5 13 15 100 0.0137379
6 13 15 100 0.0136056
7 13 15 100 0.0302352
8 13 15 100 0.0160963
9 13 15 100 0.0174108
10 13 15 100 0.0362763
11 13 15 100 0.0821634
12 13 15 100 0.0674618
13 13 15 100 0.119967
14 13 15 100 0.139136
15 13 15 100 0.322819
0 14 15 100 0.0937639
1 14 15 100 0.00791861
2 14 15 100 0.0147265
3 14 15 100 0.0160784
4 14 15 100 0.00382071
5 14 15 100 0.00369313
6 14 15 100 0.00502519
7 14 15 100 0.0234289
8 14 15 100 0.0270234
9 14 15 100 0.0141442
10 14 15 100 0.0393305
11 14 15 100 0.0507591
12 14 15 100 0.064741
13 14 15 100 0.080409
14 14 15 100 0.135812
15 14 15 100 0.419326
0 15 15 100 0.122111
1 15 15 100 0.00705083
2 15 15 100 0.032375
3 15 15 100 0.0184447
4 15 15 100 0.0143338
5 15 15 100 0.00209083
6 15 15 100 0.00683006
7 15 15 100 0.0095922
8 15 15 100 0.0212984
9 15 15 100 0.0262019
10 15 15 100 0.0454146
11 15 15 100 0.0387618
12 15 15 100 0.0560033
13 15 15 100 0.118005
14 15 15 100 0.142509
15 15 15 100 0.338977
0 16 15 100 0.145487
1 16 15 100 0.000330742
2 16 15 100 0.00160598
3 16 15 100 0.00469181
4 16 15 100 0.0469834
5 16 15 100 0.0180721
6 16 15 100 0.0152241
7 16 15 100 0.0196406
8 16 15 100 0.00306494
9 16 15 100 0.021247
10 16 15 100 0.039907
11 16 15 100 0.0628124
12 16 15 100 0.0684049
13 16 15 100 0.115475
14 16 15 100 0.08605
15 16 15 100 0.351003
0 17 15 100 0.0923575
1 17 15 100 0.00293551
2 17 15 100 0.011715
3 17 15 100 1.27033e-05
4 17 15 100 0.00541756
5 17 15 100 0.0317214
6 17 15 100 0.0163874
7 17 15 100 0.00266409
8 17 15 100 0.0013891
9 17 15 100 0.00337636
10 17 15 100 0.00825896
11 17 15 100 0.0326591
12 17 15 100 0.0658192
13 17 15 100 0.0937697
14 17 15 100 0.181989
15 17 15 100 0.449528
0 18 15 100 0.229973
1 18 15 100 0.000417021
2 18 15 100 0.00130198
3 18 15 100 0.058966
4 18 15 100 0.000706422
5 18 15 100 0.0026603
6 18 15 100 0.000127505
7 18 15 100 4.85242e-05
8 18 15 100 0.000120389
9 18 15 100 0.00114681
10 18 15 100 0.000101685
11 18 15 100 0.101095
12 18 15 100 0.00321712
13 18 15 100 0.0109552
14 18 15 100 0.108147
15 18 15 100 0.481016
0 19 15 100 0.109542
1 19 15 100 0.162861
2 19 15 100 0.000148747
3 19 15 100 0.000736272
4 19 15 100 1.51025e-05
5 19 15 100 0.00425996
6 19 15 100 0.00216595
7 19 15 100 0.0105989
8 19 15 100 0.00176324
9 19 15 100 0.00193389
10 19 15 100 0.00418489
11 19 15 100 0.0129081
12 19 15 100 0.0999043
13 19 15 100 0.00403231
14 19 15 100 0.225256
15 19 15 100 0.35969
0 1 16 100 1.95112e-07
1 1 16 100 0.513705
2 1 16 100 0.160078
3 1 16 100 0.0799174
4 1 16 100 0.0581055
5 1 16 100 0.0309127
6 1 16 100 0.0369322
7 1 16 100 0.0209412
8 1 16 100 0.0311959
9 1 16 100 0.0152777
10 1 16 100 0.00668135
11 1 16 100 0.00650233
12 1 16 100 0.00896374
13 1 16 100 0.00838568
14 1 16 100 0.0118733
15 1 16 100 0.00361594
16 1 16 100 0.0069125
0 2 16 100 0.103248
1 2 16 100 0.0736591
2 2 16 100 0.216944
3 2 16 100 0.160887
4 2 16 100 0.109856
5 2 16 100 0.070778
6 2 16 100 0.0609506
7 2 16 100 0.0371047
8 2 16 100 0.0340713
9 2 16 100 0.0231771
10 2 16 100 0.0195215
11 2 16 100 0.0153275
12 2 16 100 0.0150663
13 2 16 100 0.0204953
14 2 16 100 0.0159139
15 2 16 100 0.0152046
16 2 16 100 0.00779446
0 3 16 100 0.101381
1 3 16 100 0.0296982
2 3 16 100 0.0585173
3 3 16 100 0.170163
4 3 16 100 0.151383
5 3 16 100 0.114356
6 3 16 100 0.0851849
7 3 16 100 0.0592268
8 3 16 100 0.0426015
9 3 16 100 0.0268849
10 3 16 100 0.0282601
11 3 16 100 0.0221491
12 3 16 100 0.0199164
13 3 16 100 0.02641
14 3 16 100 0.0206077
15 3 16 100 0.0266762
16 3 16 100 0.0165838
0 4 16 100 0.100958
1 4 16 100 0.0289967
2 4 16 100 0.028683
3 4 16 100 0.0601591
4 4 16 100 0.112624
5 4 16 100 0.142081
6 4 16 100 0.117391
7 4 16 100 0.0747626
8 4 16 100 0.0672528
9 4 16 100 0.0487853
10 4 16 100 0.0318121
11 4 16 100 0.0303762
12 4 16 100 0.0323138
13 4 16 100 0.0287901
14 4 16 100 0.032741
15 4 16 100 0.0315438
16 4 16 100 0.0307296
0 5 16 100 0.10646
1 5 16 100 0.0176555
2 5 16 100 0.0210794
3 5 16 100 0.0403325
4 5 16 100 0.0602429
5 5 16 100 0.0836375
6 5 16 100 0.122513
7 5 16 100 0.108269
8 5 16 100 0.0865316
9 5 16 100 0.0548855
10 5 16 100 0.0579136
11 5 16 100 0.0433311
12 5 16 100 0.0410634
13 5 16 100 0.0364434
14 5 16 100 0.0298794
15 5 16 100 0.0413454
16 5 16 100 0.0484169
0 6 16 100 0.103517
1 6 16 100 0.01909
2 6 16 100 0.00710413
3 6 16 100 0.0257155
4 6 16 100 0.0309289
5 6 16 100 0.0558696
6 6 16 100 0.0865493
7 6 16 100 0.0964021
8 6 16 100 0.0943885
9 6 16 100 0.0820262
10 6 16 100 0.0753883
11 6 16 100 0.0543538
12 6 16 100 0.0579684
13 6 16 100 0.048327
14 6 16 100 0.0490676
15 6 16 100 0.0444613
16 6 16 100 0.0688422
0 7 16 100 0.108423
1 7 16 100 0.015545
2 7 16 100 0.0118795
3 7 16 100 0.0170808
4 7 16 100 0.0267336
5 7 16 100 0.0289874
6 7 16 100 0.0438424
7 7 16 100 0.0744066
8 7 16 100 0.0945683
9 7 16 100 0.0887562
10 7 16 100 0.0800102
11 7 16 100 0.0753395
12 7 16 100 0.0601114
13 7 16 100 0.0636011
14 7 16 100 0.0544134
15 7 16 100 0.0801013
16 7 16 100 0.0761998
0 8 16 100 0.0998775
1 8 16 100 0.0134798
2 8 16 100 0.0121845
3 8 16 100 0.0119562
4 8 16 100 0.0207846
5 8 16 100 0.0225244
6 8 16 100 0.0347483
7 8 16 100 0.0458802
8 8 16 100 0.0693193
9 8 16 100 0.087267
10 8 16 100 0.078009
11 8 16 100 0.0936729
12 8 16 100 0.0811081
13 8 16 100 0.0809293
14 8 16 100 0.0672252
15 8 16 100 0.0747269
16 8 16 100 0.106307
0 9 16 100 0.0996819
1 9 16 100 0.0117857
2 9 16 100 0.00894796
3 9 16 100 0.00961282
4 9 16 100 0.0167337
5 9 16 100 0.0157229
6 9 16 100 0.0268238
7 9 16 100 0.0275532
8 9 16 100 0.0453302
9 9 16 100 0.0596232
10 9 16 100 0.0721932
11 9 16 100 0.0826394
12 9 16 100 0.0850454
13 9 16 100 0.0937488
14 9 16 100 0.104085
15 9 16 100 0.10506
16 9 16 100 0.135413
0 10 16 100 0.0958393
1 10 16 100 0.00662118
2 10 16 100 0.00526562
3 10 16 100 0.0132897
4 10 16 100 0.00978336
5 10 16 100 0.0165983
6 10 16 100 0.0218867
7 10 16 100 0.0206857
8 10 16 100 0.0315456
9 10 16 100 0.0410189
10 10 16 100 0.0636769
11 10 16 100 0.0810905
12 10 16 100 0.0820119
13 10 16 100 0.105728
14 10 16 100 0.0893642
15 10 16 100 0.138574
16 10 16 100 0.17702
0 11 16 100 0.101255
1 11 16 100 0.00398157
2 11 16 100 0.0018559
3 11 16 100 0.0109602
4 11 16 100 0.0139404
5 11 16 100 0.0138206
6 11 16 100 0.0201034
7 11 16 100 0.0163413
8 11 16 100 0.02088
9 11 16 100 0.0342508
10 11 16 100 0.0514416
11 11 16 100 0.0843572
12 11 16 100 0.0736078
13 11 16 100 0.101803
14 11 16 100 0.0932432
15 11 16 100 0.135982
16 11 16 100 0.222176
0 12 16 100 0.0886724
1 12 16 100 0.00296056
2 12 16 100 0.000812812
3 12 16 100 0.010339
4 12 16 100 0.0129738
5 12 16 100 0.0133617
6 12 16 100 0.0179773
7 12 16 100 0.0154689
8 12 16 100 0.0225485
9 12 16 100 0.0247396
10 12 16 100 0.0358121
11 12 16 100 0.0505713
12 12 16 100 0.0848763
13 12 16 100 0.101108
14 12 16 100 0.105223
15 12 16 100 0.142217
16 12 16 100 0.270337
0 13 16 100 0.0838297
1 13 16 100 0.000557818
2 13 16 100 0.00694105
3 13 16 100 0.0090907
4 13 16 100 0.00634815
5 13 16 100 0.0185698
6 13 16 100 0.014022
7 13 16 100 0.0195397
8 13 16 100 0.0283309
9 13 16 100 0.0267291
10 13 16 100 0.0347563
11 13 16 100 0.041006
12 13 16 100 0.0609374
13 13 16 100 0.0894802
14 13 16 100 0.134907
15 13 16 100 0.112225
16 13 16 100 0.31273
0 14 16 100 0.101232
1 14 16 100 0.000521001
2 14 16 100 0.00168037
3 14 16 100 0.00816186
4 14 16 100 0.00222802
5 14 16 100 0.00579963
6 14 16 100 0.0136938
7 14 16 100 0.00750359
8 14 16 100 0.0129935
9 14 16 100 0.0233456
10 14 16 100 0.0309645
11 14 16 100 0.0367067
12 14 16 100 0.0426021
13 14 16 100 0.0976823
14 14 16 100 0.110408
15 14 16 100 0.185108
16 14 16 100 0.31937
0 15 16 100 0.110847
1 15 16 100 0.00193984
2 15 16 100 0.000625683
3 15 16 100 0.0076216
4 15 16 100 0.00767156
5 15 16 100 0.00986319
6 15 16 100 0.000960787
7 15 16 100 0.014859
8 15 16 100 0.0148247
9 15 16 100 0.0123467
10 15 16 100 0.0152743
11 15 16 100 0.0592872
12 15 16 100 0.0507711
13 15 16 100 0.0695468
14 15 16 100 0.105755
15 15 16 100 0.180363
16 15 16 100 0.337443
0 16 16 100 0.0939272
1 16 16 100 0.00680889
2 16 16 100 0.000150588
3 16 16 100 0.0124332
4 16 16 100 0.000706915
5 16 16 100 0.00351603
6 16 16 100 0.00752406
7 16 16 100 0.00936644
8 16 16 100 0.0213209
9 16 16 100 0.0176463
10 16 16 100 0.0266792
11 16 16 100 0.0126285
12 16 16 100 0.0470392
13 16 16 100 0.0670805
14 16 16 100 0.0979694
15 16 16 100 0.140428
16 16 16 100 0.434774
0 17 16 100 0.121117
1 17 16 100 0.0188534
2 17 16 100 0.000229544
3 17 16 100 0.0222808
4 17 16 100 0.000141836
5 17 16 100 0.0207098
6 17 16 100 0.00779751
7 17 16 100 0.00682284
8 17 16 100 0.0385866
9 17 16 100 0.0226597
10 17 16 100 0.0258317
11 17 16 100 0.00480381
12 17 16 100 0.0452478
13 17 16 100 0.050514
14 17 16 100 0.105144
15 17 16 100 0.0996288
16 17 16 100 0.409631
0 18 16 100 0.0766433
1 18 16 100 0.000673642
2 18 16 100 1.19747e-05
3 18 16 100 0.000225251
4 18 16 100 0.000186479
5 18 16 100 0.0416252
6 18 16 100 0.000408926
7 18 16 100 0.00168011
8 18 16 100 0.000651816
9 18 16 100 0.00066394
10 18 16 100 0.000489517
11 18 16 100 0.00531593
12 18 16 100 0.0175314
13 18 16 100 0.0532819
14 18 16 100 0.0112862
15 18 16 100 0.290066
16 18 16 100 0.499259
0 19 16 100 0.0395645
1 19 16 100 6.29469e-06
2 19 16 100 1.94841e-07
3 19 16 100 1.03503e-06
4 19 16 100 0.000242969
5 19 16 100 3.14076e-05
6 19 16 100 0.000897366
7 19 16 100 9.73874e-07
8 19 16 100 2.14807e-05
9 19 16 100 0.00618854
10 19 16 100 6.71139e-05
11 19 16 100 0.00323441
12 19 16 100 0.0845039
13 19 16 100 0.0133619
14 19 16 100 0.00051436
15 19 16 100 0.00050619
16 19 16 100 0.850857
0 20 16 100 0.0814146
2 20 16 100 0.000126504
3 20 16 100 0.000244358
4 20 16 100 0.000663233
5 20 16 100 0.00310577
6 20 16 100 0.000492341
7 20 16 100 7.48224e-06
8 20 16 100 0.0104877
9 20 16 100 0.0030861
10 20 16 100 0.00214441
11 20 16 100 0.0107776
12 20 16 100 0.0204916
13 20 16 100 0.354321
14 20 16 100 0.0226844
15 20 16 100 0.478946
16 20 16 100 0.0110078
0 1 17 100 8.02583e-07
1 1 17 100 0.56016
2 1 17 100 0.14039
3 1 17 100 0.0958281
4 1 17 100 0.0328571
5 1 17 100 0.038046
6 1 17 100 0.0260488
7 1 17 100 0.0168627
8 1 17 100 0.0247173
9 1 17 100 0.00803633
10 1 17 100 0.00563053
11 1 17 100 0.00282809
12 1 17 100 0.00933299
13 1 17 100 0.00337113
14 1 17 100 0.00812352
15 1 17 100 0.00420606
16 1 17 100 0.00567264
17 1 17 100 0.0178884
0 2 17 100 0.12569
1 2 17 100 0.0713449
2 2 17 100 0.215259
3 2 17 100 0.155725
4 2 17 100 0.111728
5 2 17 100 0.0649117
6 2 17 100 0.0502276
7 2 17 100 0.0367425
8 2 17 100 0.0333547
9 2 17 100 0.0205328
10 2 17 100 0.0264558
11 2 17 100 0.0121309
12 2 17 100 0.0142732
13 2 17 100 0.0136728
14 2 17 100 0.0129892
15 2 17 100 0.00969694
16 2 17 100 0.00935099
17 2 17 100 0.0159132
0 3 17 100 0.100547
1 3 17 100 0.0288032
2 3 17 100 0.0772423
3 3 17 100 0.135126
4 3 17 100 0.153756
5 3 17 100 0.126931
6 3 17 100 0.0877837
7 3 17 100 0.0618409
8 3 17 100 0.0433624
9 3 17 100 0.0330704
10 3 17 100 0.0311995
11 3 17 100 0.0119897
12 3 17 100 0.0179252
13 3 17 100 0.0118879
14 3 17 100 0.0201364
15 3 17 100 0.0140163
16 3 17 100 0.0223439
17 3 17 100 0.0220379
0 4 17 100 0.113484
1 4 17 100 0.013533
2 4 17 100 0.0263702
3 4 17 100 0.0707123
4 4 17 100 0.114399
5 4 17 100 0.134598
6 4 17 100 0.105855
7 4 17 100 0.0833824
8 4 17 100 0.0612324
9 4 17 100 0.058607
10 4 17 100 0.044494
11 4 17 100 0.0289214
12 4 17 100 0.0269105
13 4 17 100 0.0184658
14 4 17 100 0.0213534
15 4 17 100 0.0140813
16 4 17 100 0.0303693
17 4 17 100 0.0332319
0 5 17 100 0.10933
1 5 17 100 0.0164988
2 5 17 100 0.0230107
3 5 17 100 0.036201
4 5 17 100 0.0668714
5 5 17 100 0.102666
6 5 17 100 0.104126
7 5 17 100 0.0934037
8 5 17 100 0.0833179
9 5 17 100 0.0639741
10 5 17 100 0.0509095
11 5 17 100 0.0484561
12 5 17 100 0.0427097
13 5 17 100 0.0359528
14 5 17 100 0.0278365
15 5 17 100 0.0244155
16 5 17 100 0.0273292
17 5 17 100 0.0429908
0 6 17 100 0.096776
1 6 17 100 0.010145
2 6 17 100 0.0139437
3 6 17 100 0.0221104
4 6 17 100 0.0370773
5 6 17 100 0.0690439
6 6 17 100 0.0990782
7 6 17 100 0.0878985
8 6 17 100 0.086134
9 6 17 100 0.0787216
10 6 17 100 0.0769191
11 6 17 100 0.0593933
12 6 17 100 0.05034
13 6 17 100 0.0370892
14 6 17 100 0.0448084
15 6 17 100 0.0375278
16 6 17 100 0.0401254
17 6 17 100 0.0528683
0 7 17 100 0.110969
1 7 17 100 0.00874538
2 7 17 100 0.0144694
3 7 17 100 0.0124626
4 7 17 100 0.0287695
5 7 17 100 0.0285938
6 7 17 100 0.0558049
7 7 17 100 0.0646367
8 7 17 100 0.0991186
9 7 17 100 0.0805461
10 7 17 100 0.0821502
11 7 17 100 0.0776064
12 7 17 100 0.0597373
13 7 17 100 0.0628494
14 7 17 100 0.0476584
15 7 17 100 0.0394352
16 7 17 100 0.0636706
17 7 17 100 0.062776
0 8 17 100 0.106544
1 8 17 100 0.00587615
2 8 17 100 0.010588
3 8 17 100 0.0104675
4 8 17 100 0.0203301
5 8 17 100 0.021399
6 8 17 100 0.0396242
7 8 17 100 0.0414348
8 8 17 100 0.0680058
9 8 17 100 0.0866268
10 8 17 100 0.0777799
11 8 17 100 0.0721385
12 8 17 100 0.0758043
13 8 17 100 0.0784907
14 8 17 100 0.0650749
15 8 17 100 0.0485436
16 8 17 100 0.0831022
17 8 17 100 0.0881698
0 9 17 100 0.0949796
1 9 17 100 0.00761387
2 9 17 100 0.00668873
3 9 17 100 0.00761504
4 9 17 100 0.0194712
5 9 17 100 0.019027
6 9 17 100 0.0262905
7 9 17 100 0.0331987
8 9 17 100 0.0409824
9 9 17 100 0.0632776
10 9 17 100 0.0770215
11 9 17 100 0.0790904
12 9 17 100 0.0731168
13 9 17 100 0.0768942
14 9 17 100 0.0838154
15 9 17 100 0.0678017
16 9 17 100 0.0979691
17 9 17 100 0.125146
0 10 17 100 0.094328
1 10 17 100 0.00781439
2 10 17 100 0.00715891
3 10 17 100 0.0065817
4 10 17 100 0.00798811
5 10 17 100 0.0192612
6 10 17 100 0.0184587
7 10 17 100 0.0136698
8 10 17 100 0.0358844
9 10 17 100 0.0508864
10 10 17 100 0.0629293
11 10 17 100 0.0809991
12 10 17 100 0.0853073
13 10 17 100 0.0841001
14 10 17 100 0.0832088
15 10 17 100 0.0745868
16 10 17 100 0.105584
17 10 17 100 0.161253
0 11 17 100 0.118196
1 11 17 100 0.0110354
2 11 17 100 0.00929955
3 11 17 100 0.0101688
4 11 17 100 0.0109699
5 11 17 100 0.0128532
6 11 17 100 0.0196232
7 11 17 100 0.0214088
8 11 17 100 0.0153112
9 11 17 100 0.0335457
10 11 17 100 0.0596064
11 11 17 100 0.0665923
12 11 17 100 0.072643
13 11 17 100 0.0936693
14 11 17 100 0.0873488
15 11 17 100 0.0801967
16 11 17 100 0.10256
17 11 17 100 0.174971
0 12 17 100 0.0931803
1 12 17 100 0.00731021
2 12 17 100 0.00501409
3 12 17 100 0.00840258
4 12 17 100 0.00727335
5 12 17 100 0.0206296
6 12 17 100 0.0144267
7 12 17 100 0.0103867
8 12 17 100 0.0215339
9 12 17 100 0.0252221
10 12 17 100 0.0518384
11 12 17 100 0.0631229
12 12 17 100 0.0756655
13 12 17 100 0.0793522
14 12 17 100 0.0895617
15 12 17 100 0.0861038
16 12 17 100 0.135567
17 12 17 100 0.205409
0 13 17 100 0.108644
1 13 17 100 0.00570198
2 13 17 100 0.00416768
3 13 17 100 0.0115773
4 13 17 100 0.00870539
5 13 17 100 0.00653924
6 13 17 100 0.0109041
7 13 17 100 0.0135545
8 13 17 100 0.0167901
9 13 17 100 0.0232691
10 13 17 100 0.0472352
11 13 17 100 0.0451693
12 13 17 100 0.0587047
13 13 17 100 0.0918608
14 13 17 100 0.0925028
15 13 17 100 0.0760784
16 13 17 100 0.117247
17 13 17 100 0.261349
0 14 17 100 0.0940406
1 14 17 100 0.00790016
2 14 17 100 0.00754535
3 14 17 100 0.00978051
4 14 17 100 0.00566035
5 14 17 100 0.0116317
6 14 17 100 0.00790631
7 14 17 100 0.0223712
8 14 17 100 0.00790021
9 14 17 100 0.0125177
10 14 17 100 0.0142042
11 14 17 100 0.0569167
12 14 17 100 0.0505387
13 14 17 100 0.0913647
14 14 17 100 0.0945589
15 14 17 100 0.0965697
16 14 17 100 0.126591
17 14 17 100 0.282002
0 15 17 100 0.113748
1 15 17 100 0.00928258
2 15 17 100 0.00461252
3 15 17 100 0.00472528
4 15 17 100 0.00542664
5 15 17 100 0.00501978
6 15 17 100 0.0208423
7 15 17 100 0.0192267
8 15 17 100 0.010501
9 15 17 100 0.0238308
10 15 17 100 0.0120233
11 15 17 100 0.0313338
12 15 17 100 0.0298552
13 15 17 100 0.0671785
14 15 17 100 0.0911927
15 15 17 100 0.0967513
16 15 17 100 0.169847
17 15 17 100 0.284603
0 16 17 100 0.110087
1 16 17 100 0.0105761
2 16 17 100 0.00677434
3 16 17 100 0.0083799
4 16 17 100 0.00801012
5 16 17 100 0.00392794
6 16 17 100 0.0140941
7 16 17 100 0.0188871
8 16 17 100 0.00376055
9 16 17 100 0.0162083
10 16 17 100 0.0125925
11 16 17 100 0.0216572
12 16 17 100 0.0220379
13 16 17 100 0.0404515
14 16 17 100 0.0777266
15 16 17 100 0.0955174
16 16 17 100 0.153007
17 16 17 100 0.376304
0 17 17 100 0.0948217
1 17 17 100 0.0083428
2 17 17 100 0.000317577
3 17 17 100 0.00865111
4 17 17 100 0.000727432
5 17 17 100 0.00501816
6 17 17 100 0.00220188
7 17 17 100 0.00904086
8 17 17 100 0.00184876
9 17 17 100 0.0109426
10 17 17 100 0.00119077
11 17 17 100 0.0214086
12 17 17 100 0.0235673
13 17 17 100 0.0397596
14 17 17 100 0.0979082
15 17 17 100 0.0555927
16 17 17 100 0.206131
17 17 17 100 0.412529
0 18 17 100 0.0804419
1 18 17 100 0.000194
2 18 17 100 0.00476687
3 18 17 100 0.00020369
4 18 17 100 0.0163365
5 18 17 100 0.0167523
6 18 17 100 0.000512769
7 18 17 100 0.000388492
8 18 17 100 0.000891707
9 18 17 100 0.00126134
10 18 17 100 0.000211297
11 18 17 100 0.00111797
12 18 17 100 0.00841249
13 18 17 100 0.000979454
14 18 17 100 0.0890884
15 18 17 100 0.0806171
16 18 17 100 0.179266
17 18 17 100 0.518558
0 19 17 100 0.0930865
1 19 17 100 2.70425e-05
2 19 17 100 0.000115286
3 19 17 100 0.00457381
4 19 17 100 0.000193377
5 19 17 100 0.0767562
6 19 17 100 0.00283357
7 19 17 100 0.00164064
8 19 17 100 6.95223e-05
9 19 17 100 0.000560229
10 19 17 100 0.00135514
11 19 17 100 0.000875208
12 19 17 100 0.00933408
13 19 17 100 0.0249035
14 19 17 100 0.0780925
15 19 17 100 0.061028
16 19 17 100 0.137088
17 19 17 100 0.507468
0 20 17 100 0.356388
1 20 17 100 8.8609e-07
2 20 17 100 0.00340283
3 20 17 100 0.000155153
4 20 17 100 0.00159799
5 20 17 100 0.0747313
6 20 17 100 0.000507264
7 20 17 100 0.00128572
8 20 17 100 0.0176759
9 20 17 100 0.000613821
10 20 17 100 0.0208379
11 20 17 100 0.000281185
12 20 17 100 0.0122095
13 20 17 100 0.0057194
14 20 17 100 0.0809828
15 20 17 100 0.00121925
16 20 17 100 0.0128679
17 20 17 100 0.409523
0 21 17 100 0.0268935
1 21 17 100 1.27184e-07
2 21 17 100 1.2203e-05
3 21 17 100 5.06089e-05
4 21 17 100 3.34102e-05
5 21 17 100 0.164258
6 21 17 100 0.000311654
7 21 17 100 0.00987372
8 21 17 100 1.2974e-07
9 21 17 100 2.29518e-05
10 21 17 100 0.000324444
11 21 17 100 0.000489829
12 21 17 100 0.00652995
13 21 17 100 0.00224668
14 21 17 100 0.150924
15 21 17 100 0.000908949
16 21 17 100 0.00932359
17 21 17 100 0.627797
0 1 18 100 1.18967e-07
1 1 18 100 0.538819
2 1 18 100 0.153752
3 1 18 100 0.0956756
4 1 18 100 0.032401
5 1 18 100 0.0295678
6 1 18 100 0.0329499
7 1 18 100 0.0264647
8 1 18 100 0.0160783
9 1 18 100 0.0218594
10 1 18 100 0.00627324
11 1 18 100 0.00633037
12 1 18 100 0.00453724
13 1 18 100 0.00448267
14 1 18 100 0.00894707
15 1 18 100 0.00542998
16 1 18 100 0.00107721
17 1 18 100 0.00804588
18 1 18 100 0.00730858
0 2 18 100 0.114438
1 2 18 100 0.068753
2 2 18 100 0.215066
3 2 18 100 0.148691
4 2 18 100 0.117239
5 2 18 100 0.0796164
6 2 18 100 0.0517907
7 2 18 100 0.0370999
8 2 18 100 0.0306531
9 2 18 100 0.0311579
10 2 18 100 0.0165969
11 2 18 100 0.0176438
12 2 18 100 0.00888535
13 2 18 100 0.00838737
14 2 18 100 0.011759
15 2 18 100 0.00672777
16 2 18 100 0.00937429
17 2 18 100 0.011455
18 2 18 100 0.0146655
0 3 18 100 0.0934433
1 3 18 100 0.0348832
2 3 18 100 0.0671596
3 3 18 100 0.153246
4 3 18 100 0.145696
5 3 18 100 0.132716
6 3 18 100 0.0866397
7 3 18 100 0.0599335
8 3 18 100 0.0454215
9 3 18 100 0.0325327
10 3 18 100 0.0239545
11 3 18 100 0.0227567
12 3 18 100 0.0145325
13 3 18 100 0.0137929
14 3 18 100 0.0174078
15 3 18 100 0.0158707
16 3 18 100 0.0113184
17 3 18 100 0.0117164
18 3 18 100 0.0169792
0 4 18 100 0.0986667
1 4 18 100 0.0277989
2 4 18 100 0.0282816
3 4 18 100 0.0702014
4 4 18 100 0.114102
5 4 18 100 0.128916
6 4 18 100 0.129385
7 4 18 100 0.076894
8 4 18 100 0.0742842
9 4 18 100 0.0600731
10 4 18 100 0.0400305
11 4 18 100 0.0200679
12 4 18 100 0.0247683
13 4 18 100 0.0227089
14 4 18 100 0.0182713
15 4 18 100 0.0158873
16 4 18 100 0.0162091
17 4 18 100 0.0121185
18 4 18 100 0.0213361
0 5 18 100 0.110194
1 5 18 100 0.0190664
2 5 18 100 0.0207947
3 5 18 100 0.0260951
4 5 18 100 0.0555735
5 5 18 100 0.107934
6 5 18 100 0.108846
7 5 18 100 0.113828
8 5 18 100 0.097405
9 5 18 100 0.0745962
10 5 18 100 0.0554175
11 5 18 100 0.0438554
12 5 18 100 0.0279548
13 5 18 100 0.0159409
14 5 18 100 0.0249148
15 5 18 100 0.0164236
16 5 18 100 0.0267557
17 5 18 100 0.0253229
18 5 18 100 0.0290821
0 6 18 100 0.105291
1 6 18 100 0.0128598
2 6 18 100 0.0118693
3 6 18 100 0.0211468
4 6 18 100 0.0376504
5 6 18 100 0.0501423
6 6 18 100 0.0761609
7 6 18 100 0.096442
8 6 18 100 0.128558
9 6 18 100 0.0916485
10 6 18 100 0.0794993
11 6 18 100 0.0584209
12 6 18 100 0.0423901
13 6 18 100 0.0368496
14 6 18 100 0.0270311
15 6 18 100 0.0235558
16 6 18 100 0.0254695
17 6 18 100 0.0398826
18 6 18 100 0.0351317
0 7 18 100 0.105892
1 7 18 100 0.0125826
2 7 18 100 0.0137235
3 7 18 100 0.0134702
4 7 18 100 0.02769
5 7 18 100 0.0364772
6 7 18 100 0.0369954
7 7 18 100 0.0624445
8 7 18 100 0.0893381
9 7 18 100 0.0992155
10 7 18 100 0.0914917
11 7 18 100 0.0636224
12 7 18 100 0.0732777
13 7 18 100 0.0456033
14 7 18 100 0.0522016
15 7 18 100 0.034826
16 7 18 100 0.0395181
17 7 18 100 0.0429035
18 7 18 100 0.0587272
0 8 18 100 0.105943
1 8 18 100 0.00796855
2 8 18 100 0.0108365
3 8 18 100 0.00833944
4 8 18 100 0.0243276
5 8 18 100 0.0261225
6 8 18 100 0.0305124
7 8 18 100 0.0416502
8 8 18 100 0.0670823
9 8 18 100 0.0820771
10 8 18 100 0.0765111
11 8 18 100 0.0921193
12 8 18 100 0.0600045
13 8 18 100 0.054514
14 8 18 100 0.0658727
15 8 18 100 0.0506404
16 8 18 100 0.0573324
17 8 18 100 0.0722691
18 8 18 100 0.0658763
0 9 18 100 0.11453
1 9 18 100 0.00603583
2 9 18 100 0.0106204
3 9 18 100 0.00735491
4 9 18 100 0.0139202
5 9 18 100 0.0279187
6 9 18 100 0.0219004
7 9 18 100 0.0272303
8 9 18 100 0.0355473
9 9 18 100 0.0626093
10 9 18 100 0.0561771
11 9 18 100 0.0777187
12 9 18 100 0.0904185
13 9 18 100 0.0695421
14 9 18 100 0.0670237
15 9 18 100 0.0640627
16 9 18 100 0.0756649
17 9 18 100 0.0807169
18 9 18 100 0.0910079
0 10 18 100 0.100772
1 10 18 100 0.002653
2 10 18 100 0.0116155
3 10 18 100 0.005778
4 10 18 100 0.0125277
5 10 18 100 0.0294224
6 10 18 100 0.0202894
7 10 18 100 0.014684
8 10 18 100 0.0323293
9 10 18 100 0.0412474
10 10 18 100 0.0576884
11 10 18 100 0.0672729
12 10 18 100 0.0628099
13 10 18 100 0.0852299
14 10 18 100 0.0895934
15 10 18 100 0.0774534
16 10 18 100 0.0726203
17 10 18 100 0.099401
18 10 18 100 0.116612
0 11 18 100 0.117589
1 11 18 100 0.00247835
2 11 18 100 0.00635286
3 11 18 100 0.0092777
4 11 18 100 0.00501141
5 11 18 100 0.0145225
6 11 18 100 0.0248831
7 11 18 100 0.0166083
8 11 18 100 0.0201599
9 11 18 100 0.0345708
10 11 18 100 0.0395689
11 11 18 100 0.0625285
12 11 18 100 0.074047
13 11 18 100 0.0858631
14 11 18 100 0.0788871
15 11 18 100 0.0811233
16 11 18 100 0.0816845
17 11 18 100 0.116416
18 11 18 100 0.128428
0 12 18 100 0.0934313
1 12 18 100 0.00257413
2 12 18 100 0.0084924
3 12 18 100 0.0053458
4 12 18 100 0.00948022
5 12 18 100 0.0174229
6 12 18 100 0.0164706
7 12 18 100 0.0203023
8 12 18 100 0.0174314
9 12 18 100 0.0274349
10 12 18 100 0.0253222
11 12 18 100 0.0428162
12 12 18 100 0.0732688
13 12 18 100 0.0709909
14 12 18 100 0.0809877
15 12 18 100 0.0837968
16 12 18 100 0.112869
17 12 18 100 0.121161
18 12 18 100 0.170402
0 13 18 100 0.0999287
1 13 18 100 0.00503226
2 13 18 100 0.00748076
3 13 18 100 0.00374775
4 13 18 100 0.00538198
5 13 18 100 0.0105893
6 13 18 100 0.014165
7 13 18 100 0.0236654
8 13 18 100 0.0169557
9 13 18 100 0.0246746
10 13 18 100 0.0174669
11 13 18 100 0.0430644
12 13 18 100 0.0288723
13 13 18 100 0.068691
14 13 18 100 0.0568241
15 13 18 100 0.102735
16 13 18 100 0.112206
17 13 18 100 0.161256
18 13 18 100 0.197264
0 14 18 100 0.0864862
1 14 18 100 0.00424581
2 14 18 100 0.0135709
3 14 18 100 0.00440814
4 14 18 100 0.00380755
5 14 18 100 0.0111506
6 14 18 100 0.00803247
7 14 18 100 0.0145289
8 14 18 100 0.0127941
9 14 18 100 0.0231458
10 14 18 100 0.0260804
11 14 18 100 0.0360269
12 14 18 100 0.0277629
13 14 18 100 0.055869
14 14 18 100 0.0594469
15 14 18 100 0.0930463
16 14 18 100 0.0988083
17 14 18 100 0.159937
18 14 18 100 0.260852
0 15 18 100 0.0851487
1 15 18 100 0.00435979
2 15 18 100 0.0057907
3 15 18 100 0.00151118
4 15 18 100 0.0011459
5 15 18 100 0.0197472
6 15 18 100 0.0110131
7 15 18 100 0.0129673
8 15 18 100 0.00983611
9 15 18 100 0.010404
10 15 18 100 0.0207304
11 15 18 100 0.0403483
12 15 18 100 0.0309852
13 15 18 100 0.059273
14 15 18 100 0.0754966
15 15 18 100 0.0584681
16 15 18 100 0.106702
17 15 18 100 0.137691
18 15 18 100 0.308382
0 16 18 100 0.123601
1 16 18 100 0.00380545
2 16 18 100 0.000201483
3 16 18 100 0.00361622
4 16 18 100 0.00690645
5 16 18 100 0.00752418
6 16 18 100 0.00766156
7 16 18 100 0.0042144
8 16 18 100 0.0302013
9 16 18 100 0.0179071
10 16 18 100 0.0131293
11 16 18 100 0.0251394
12 16 18 100 0.0270614
13 16 18 100 0.042779
14 16 18 100 0.0624595
15 16 18 100 0.106827
16 16 18 100 0.0912856
17 16 18 100 0.124161
18 16 18 100 0.301518
0 17 18 100 0.112446
1 17 18 100 0.00154687
2 17 18 100 0.00104494
3 17 18 100 0.000214828
4 17 18 100 0.00176579
5 17 18 100 0.0091428
6 17 18 100 0.00222905
7 17 18 100 0.0204021
8 17 18 100 0.0274775
9 17 18 100 0.0155417
10 17 18 100 0.0304427
11 17 18 100 0.0223278
12 17 18 100 0.0222748
13 17 18 100 0.0156652
14 17 18 100 0.031863
15 17 18 100 0.118609
16 17 18 100 0.135765
17 17 18 100 0.113878
18 17 18 100 0.317363
0 18 18 100 0.0721679
1 18 18 100 5.48122e-05
2 18 18 100 0.000689956
3 18 18 100 4.09753e-05
4 18 18 100 0.000104178
5 18 18 100 0.0162494
6 18 18 100 0.00013643
7 18 18 100 0.0246151
8 18 18 100 0.0191664
9 18 18 100 0.0174257
10 18 18 100 0.0375738
11 18 18 100 0.049835
12 18 18 100 0.0340891
13 18 18 100 0.0189676
14 18 18 100 0.00889295
15 18 18 100 0.0631081
16 18 18 100 0.0552834
17 18 18 100 0.297604
18 18 18 100 0.283995
0 19 18 100 0.177322
1 19 18 100 0.000124076
2 19 18 100 0.000111227
3 19 18 100 2.76563e-05
4 19 18 100 0.000675605
5 19 18 100 0.0111341
6 19 18 100 0.000472287
7 19 18 100 0.00132813
8 19 18 100 0.000384982
9 19 18 100 0.00146199
10 19 18 100 0.00293663
11 19 18 100 0.0310084
12 19 18 100 0.0306338
13 19 18 100 0.0204419
14 19 18 100 0.0110307
15 19 18 100 0.0595873
16 19 18 100 0.0324541
17 19 18 100 0.201
18 19 18 100 0.417865
0 20 18 100 0.0557505
1 20 18 100 0.000384643
2 20 18 100 8.03847e-05
3 20 18 100 6.55337e-06
4 20 18 100 0.00348927
5 20 18 100 0.0263112
6 20 18 100 0.00291684
7 20 18 100 0.00536075
8 20 18 100 0.0246795
9 20 18 100 0.00738309
10 20 18 100 0.0566462
11 20 18 100 0.0101351
12 20 18 100 0.0562124
13 20 18 100 0.0606987
14 20 18 100 0.0828377
15 20 18 100 0.0843568
16 20 18 100 0.0139507
17 20 18 100 0.0423701
18 20 18 100 0.46643
0 21 18 100 0.142132
2 21 18 100 4.00138e-05
3 21 18 100 9.07353e-07
4 21 18 100 0.000128672
5 21 18 100 2.80298e-06
6 21 18 100 1.32748e-06
7 21 18 100 0.000256297
8 21 18 100 0.161782
9 21 18 100 0.0373129
10 21 18 100 0.00271938
11 21 18 100 0.162025
12 21 18 100 0.000299781
13 21 18 100 0.000313352
14 21 18 100 0.00207825
15 21 18 100 0.174345
16 21 18 100 0.0573939
17 21 18 100 3.12762e-05
18 21 18 100 0.259137
0 22 18 100 1.49767e-07
2 22 18 100 2.50721e-06
5 22 18 100 5.82805e-07
6 22 18 100 1.34763e-05
8 22 18 100 1.70511e-07
9 22 18 100 2.00812e-07
10 22 18 100 2.30627e-05
11 22 18 100 1.25118e-06
12 22 18 100 0.983304
13 22 18 100 0.000123183
14 22 18 100 2.36726e-05
15 22 18 100 6.825e-07
16 22 18 100 1.14365e-06
17 22 18 100 0.0163972
18 22 18 100 0.000108976
0 1 19 100 1.104e-07
1 1 19 100 0.53824
2 1 19 100 0.131142
3 1 19 100 0.0777972
4 1 19 100 0.0620321
5 1 19 100 0.0473773
6 1 19 100 0.0230274
7 1 19 100 0.0243295
8 1 19 100 0.014817
9 1 19 100 0.021195
10 1 19 100 0.00987939
11 1 19 100 0.0113711
12 1 19 100 0.0050614
13 1 19 100 0.00705149
14 1 19 100 0.000295047
15 1 19 100 0.000374656
16 1 19 100 0.00576142
17 1 19 100 0.00607403
18 1 19 100 0.00301431
19 1 19 100 0.0111596
0 2 19 100 0.102143
1 2 19 100 0.0722051
2 2 19 100 0.219204
3 2 19 100 0.158243
4 2 19 100 0.105101
5 2 19 100 0.0679701
6 2 19 100 0.0538593
7 2 19 100 0.0374208
8 2 19 100 0.0303417
9 2 19 100 0.0304885
10 2 19 100 0.0172879
11 2 19 100 0.0110125
12 2 19 100 0.0141161
13 2 19 100 0.0136152
14 2 19 100 0.0108645
15 2 19 100 0.00706985
16 2 19 100 0.0104189
17 2 19 100 0.00782932
18 2 19 100 0.0131985
19 2 19 100 0.0176113
0 3 19 100 0.102836
1 3 19 100 0.0276247
2 3 19 100 0.0597221
3 3 19 100 0.164817
4 3 19 100 0.135866
5 3 19 100 0.116674
6 3 19 100 0.0721222
7 3 19 100 0.0524778
8 3 19 100 0.0461334
9 3 19 100 0.0363743
10 3 19 100 0.0321065
11 3 19 100 0.0185963
12 3 19 100 0.0198935
13 3 19 100 0.0159138
14 3 19 100 0.0190559
15 3 19 100 0.018204
16 3 19 100 0.0115606
17 3 19 100 0.00874623
18 3 19 100 0.0186436
19 3 19 100 0.0226316
0 4 19 100 0.113345
1 4 19 100 0.0153276
2 4 19 100 0.0393605
3 4 19 100 0.0642597
4 4 19 100 0.122971
5 4 19 100 0.126643
6 4 19 100 0.102196
7 4 19 100 0.0698472
8 4 19 100 0.0662868
9 4 19 100 0.0541549
10 4 19 100 0.0339799
11 4 19 100 0.0233816
12 4 19 100 0.0242092
13 4 19 100 0.0276232
14 4 19 100 0.0175043
15 4 19 100 0.020335
16 4 19 100 0.0178806
17 4 19 100 0.0160049
18 4 19 100 0.0205681
19 4 19 100 0.0241205
0 5 19 100 0.1058
1 5 19 100 0.012275
2 5 19 100 0.0271896
3 5 19 100 0.0392664
4 5 19 100 0.0668206
5 5 19 100 0.0926491
6 5 19 100 0.113215
7 5 19 100 0.0868478
8 5 19 100 0.0804059
9 5 19 100 0.0752719
10 5 19 100 0.049377
11 5 19 100 0.0447116
12 5 19 100 0.0274558
13 5 19 100 0.0318111
14 5 19 100 0.0203107
15 5 19 100 0.0179922
16 5 19 100 0.0263147
17 5 19 100 0.0257635
18 5 19 100 0.0291269
19 5 19 100 0.0273957
0 6 19 100 0.117432
1 6 19 100 0.0153774
2 6 19 100 0.0174887
3 6 19 100 0.0196206
4 6 19 100 0.0397769
5 6 19 100 0.0663478
6 6 19 100 0.0715326
7 6 19 100 0.0968121
8 6 19 100 0.104413
9 6 19 100 0.0710905
10 6 19 100 0.0610921
11 6 19 100 0.0577862
12 6 19 100 0.0330683
13 6 19 100 0.0467102
14 6 19 100 0.0301767
15 6 19 100 0.0251746
16 6 19 100 0.027899
17 6 19 100 0.0241575
18 6 19 100 0.0408568
19 6 19 100 0.033187
0 7 19 100 0.115114
1 7 19 100 0.0128639
2 7 19 100 0.0126984
3 7 19 100 0.021482
4 7 19 100 0.0151134
5 7 19 100 0.0387877
6 7 19 100 0.0514258
7 7 19 100 0.0628759
8 7 19 100 0.090918
9 7 19 100 0.0746289
10 7 19 100 0.0940752
11 7 19 100 0.0579093
12 7 19 100 0.0601283
13 7 19 100 0.0537058
14 7 19 100 0.0332287
15 7 19 100 0.0311793
16 7 19 100 0.0354127
17 7 19 100 0.032529
18 7 19 100 0.048443
19 7 19 100 0.0574809
0 8 19 100 0.0998648
1 8 19 100 0.00985218
2 8 19 100 0.0116508
3 8 19 100 0.0136513
4 8 19 100 0.0183884
5 8 19 100 0.0254505
6 8 19 100 0.0210073
7 8 19 100 0.0433799
8 8 19 100 0.0736693
9 8 19 100 0.0717577
10 8 19 100 0.0717487
11 8 19 100 0.0829424
12 8 19 100 0.0650303
13 8 19 100 0.0784772
14 8 19 100 0.0543438
15 8 19 100 0.0453744
16 8 19 100 0.0499068
17 8 19 100 0.0438717
18 8 19 100 0.0666481
19 8 19 100 0.0529844
0 9 19 100 0.1146
1 9 19 100 0.0079104
2 9 19 100 0.0114076
3 9 19 100 0.00637283
4 9 19 100 0.0156596
5 9 19 100 0.0227804
6 9 19 100 0.0195635
7 9 19 100 0.02057
8 9 19 100 0.0469593
9 9 19 100 0.0543385
10 9 19 100 0.0760434
11 9 19 100 0.0724526
12 9 19 100 0.0773997
13 9 19 100 0.0756033
14 9 19 100 0.0640402
15 9 19 100 0.0547673
16 9 19 100 0.0477777
17 9 19 100 0.057237
18 9 19 100 0.0771105
19 9 19 100 0.0774062
0 10 19 100 0.100463
1 10 19 100 0.00256287
2 10 19 100 0.00571718
3 10 19 100 0.00490565
4 10 19 100 0.0115667
5 10 19 100 0.0208678
6 10 19 100 0.0133228
7 10 19 100 0.0266614
8 10 19 100 0.0268288
9 10 19 100 0.0468009
10 10 19 100 0.0443218
11 10 19 100 0.0692604
12 10 19 100 0.071253
13 10 19 100 0.0909935
14 10 19 100 0.0724806
15 10 19 100 0.0713052
16 10 19 100 0.0737609
17 10 19 100 0.0590626
18 10 19 100 0.0668888
19 10 19 100 0.120976
0 11 19 100 0.111737
1 11 19 100 0.00299144
2 11 19 100 0.00626616
3 11 19 100 0.0027441
4 11 19 100 0.00713698
5 11 19 100 0.0120242
6 11 19 100 0.0171486
7 11 19 100 0.0186297
8 11 19 100 0.0222596
9 11 19 100 0.0339085
10 11 19 100 0.0321054
11 11 19 100 0.0619135
12 11 19 100 0.0535222
13 11 19 100 0.0917903
14 11 19 100 0.0817803
15 11 19 100 0.076737
16 11 19 100 0.0811449
17 11 19 100 0.0792763
18 11 19 100 0.0913921
19 11 19 100 0.115492
0 12 19 100 0.0973006
1 12 19 100 0.00549429
2 12 19 100 0.00260424
3 12 19 100 0.0060602
4 12 19 100 0.00307504
5 12 19 100 0.0112791
6 12 19 100 0.00656865
7 12 19 100 0.0213417
8 12 19 100 0.015861
9 12 19 100 0.0343822
10 12 19 100 0.0309189
11 12 19 100 0.0304632
12 12 19 100 0.053274
13 12 19 100 0.0632998
14 12 19 100 0.0782047
15 12 19 100 0.0739815
16 12 19 100 0.0939032
17 12 19 100 0.0984151
18 12 19 100 0.111124
19 12 19 100 0.162449
0 13 19 100 0.112675
1 13 19 100 0.00294032
2 13 19 100 0.00484274
3 13 19 100 0.00217558
4 13 19 100 0.0127791
5 13 19 100 0.00806035
6 13 19 100 0.00240049
7 13 19 100 0.00981317
8 13 19 100 0.0189462
9 13 19 100 0.01942
10 13 19 100 0.0320074
11 13 19 100 0.0520356
12 13 19 100 0.0330898
13 13 19 100 0.0471147
14 13 19 100 0.0668265
15 13 19 100 0.0718171
16 13 19 100 0.088104
17 13 19 100 0.0963389
18 13 19 100 0.132823
19 13 19 100 0.18579
0 14 19 100 0.0811643
1 14 19 100 0.00452578
2 14 19 100 0.0013131
3 14 19 100 0.00291405
4 14 19 100 0.00560128
5 14 19 100 0.00820211
6 14 19 100 0.00718285
7 14 19 100 0.003035
8 14 19 100 0.0128998
9 14 19 100 0.0187027
10 14 19 100 0.0284919
11 14 19 100 0.033119
12 14 19 100 0.0340393
13 14 19 100 0.0470527
14 14 19 100 0.0680878
15 14 19 100 0.0694024
16 14 19 100 0.0774139
17 14 19 100 0.112534
18 14 19 100 0.13868
19 14 19 100 0.245638
0 15 19 100 0.117968
1 15 19 100 0.0034481
2 15 19 100 0.00387127
3 15 19 100 0.00045845
4 15 19 100 0.0108733
5 15 19 100 0.00233335
6 15 19 100 0.00136651
7 15 19 100 0.0157127
8 15 19 100 0.00673526
9 15 19 100 0.0171679
10 15 19 100 0.0193205
11 15 19 100 0.0100874
12 15 19 100 0.0236809
13 15 19 100 0.0427703
14 15 19 100 0.0568228
15 15 19 100 0.0786844
16 15 19 100 0.0669828
17 15 19 100 0.127124
18 15 19 100 0.166498
19 15 19 100 0.228095
0 16 19 100 0.111279
1 16 19 100 0.00497706
2 16 19 100 0.000668518
3 16 19 100 0.00577815
4 16 19 100 0.00411903
5 16 19 100 0.00959143
6 16 19 100 0.00285948
7 16 19 100 0.00644101
8 16 19 100 0.01299
9 16 19 100 0.010993
10 16 19 100 0.0305375
11 16 19 100 0.0228119
12 16 19 100 0.019218
13 16 19 100 0.0288232
14 16 19 100 0.0616154
15 16 19 100 0.045949
16 16 19 100 0.0831254
17 16 19 100 0.0938526
18 16 19 100 0.177764
19 16 19 100 0.266606
0 17 19 100 0.0738285
1 17 19 100 0.000956414
2 17 19 100 0.000574342
3 17 19 100 0.00174804
4 17 19 100 0.00818095
5 17 19 100 0.00174737
6 17 19 100 0.000994544
7 17 19 100 0.00828997
8 17 19 100 0.00996494
9 17 19 100 0.0038768
10 17 19 100 0.0189152
11 17 19 100 0.0395159
12 17 19 100 0.0110126
13 17 19 100 0.0313623
14 17 19 100 0.0429888
15 17 19 100 0.0800448
16 17 19 100 0.0714958
17 17 19 100 0.123328
18 17 19 100 0.143504
19 17 19 100 0.32767
0 18 19 100 0.172459
1 18 19 100 1.43423e-05
2 18 19 100 9.06881e-05
3 18 19 100 0.00306244
4 18 19 100 0.014944
5 18 19 100 0.00037536
6 18 19 100 0.0148672
7 18 19 100 0.00182994
8 18 19 100 0.00321262
9 18 19 100 0.0156061
10 18 19 100 0.0116906
11 18 19 100 0.0176783
12 18 19 100 0.0305675
13 18 19 100 0.0165985
14 18 19 100 0.027956
15 18 19 100 0.107487
16 18 19 100 0.0776894
17 18 19 100 0.0610098
18 18 19 100 0.102269
19 18 19 100 0.320591
0 19 19 100 0.0870242
1 19 19 100 4.62301e-05
2 19 19 100 8.56788e-05
3 19 19 100 0.00366967
4 19 19 100 0.00100997
5 19 19 100 0.00223698
6 19 19 100 0.0194641
7 19 19 100 0.0509097
8 19 19 100 0.0129429
9 19 19 100 0.0121264
10 19 19 100 0.0310139
11 19 19 100 0.0022661
12 19 19 100 0.0435874
13 19 19 100 0.0561886
14 19 19 100 0.029625
15 19 19 100 0.0626847
16 19 19 100 0.0757082
17 19 19 100 0.206343
18 19 19 100 0.0409198
19 19 19 100 0.262148
0 20 19 100 0.140582
1 20 19 100 0.000162348
2 20 19 100 0.000276997
3 20 19 100 9.3375e-05
4 20 19 100 0.00170059
5 20 19 100 0.000441621
6 20 19 100 0.0144955
7 20 19 100 0.0398939
8 20 19 100 0.0346862
9 20 19 100 0.000731866
10 20 19 100 0.110194
11 20 19 100 0.0240596
12 20 19 100 0.0125473
13 20 19 100 0.0362714
14 20 19 100 0.0367313
15 20 19 100 0.0176091
16 20 19 100 0.0504605
17 20 19 100 0.0488772
18 20 19 100 0.12791
19 20 19 100 0.302275
0 21 19 100 0.134507
1 21 19 100 9.13897e-06
2 21 19 100 2.05959e-05
3 21 19 100 9.0598e-07
4 21 19 100 0.00042862
5 21 19 100 0.00225289
6 21 19 100 0.0194862
7 21 19 100 0.00576406
8 21 19 100 6.56257e-05
9 21 19 100 0.000143137
10 21 19 100 0.0598523
11 21 19 100 0.00552295
12 21 19 100 0.133452
13 21 19 100 0.0716594
14 21 19 100 0.016975
15 21 19 100 0.0342374
16 21 19 100 0.0669042
17 21 19 100 0.0396126
18 21 19 100 0.0225404
19 21 19 100 0.386566
0 22 19 100 0.143621
2 22 19 100 3.7378e-07
3 22 19 100 0.00413169
4 22 19 100 6.54306e-05
5 22 19 100 0.00205948
6 22 19 100 0.00101449
7 22 19 100 0.000732951
8 22 19 100 7.9216e-05
9 22 19 100 0.000615295
10 22 19 100 0.000192907
11 22 19 100 0.179897
12 22 19 100 0.0020949
13 22 19 100 0.0125476
14 22 19 100 8.28559e-05
15 22 19 100 0.0421693
16 22 19 100 0.219061
17 22 19 100 0.00148752
18 22 19 100 0.140439
19 22 19 100 0.249708
0 23 19 100 8.76374e-07
4 23 19 100 1.5806e-07
5 23 19 100 7.32771e-05
7 23 19 100 6.96491e-07
11 23 19 100 0.388432
13 23 19 100 0.333333
14 23 19 100 8.27555e-06
15 23 19 100 2.88271e-07
16 23 19 100 4.94312e-07
17 23 19 100 5.95263e-07
18 23 19 100 0.000334902
19 23 19 100 0.277816
0 24 19 100 0.000201167
3 24 19 100 7.93114e-06
4 24 19 100 3.94797e-05
5 24 19 100 3.39855e-06
6 24 19 100 0.00627642
7 24 19 100 9.36371e-07
8 24 19 100 3.38911e-07
9 24 19 100 1.24988e-07
10 24 19 100 8.70102e-07
11 24 19 100 0.00264817
12 24 19 100 0.000482666
14 24 19 100 8.6185e-05
15 24 19 100 1.00082e-07
16 24 19 100 0.000100265
18 24 19 100 0.000223084
19 24 19 100 0.989929
0 1 20 100 5.28907e-07
1 1 20 100 0.526585
2 1 20 100 0.14721
3 1 20 100 0.0949164
4 1 20 100 0.0193035
5 1 20 100 0.0373948
6 1 20 100 0.0375077
7 1 20 100 0.0427403
8 1 20 100 0.0117278
9 1 20 100 0.0207615
10 1 20 100 0.0126014
11 1 20 100 0.0143943
12 1 20 100 0.00820344
13 1 20 100 0.000822075
14 1 20 100 0.00310651
15 1 20 100 0.00322424
16 1 20 100 0.00133999
17 1 20 100 2.92798e-06
18 1 20 100 0.00261275
19 1 20 100 0.00394949
20 1 20 100 0.0115954
0 2 20 100 0.114378
1 2 20 100 0.0973926
2 2 20 100 0.193554
3 2 20 100 0.150946
4 2 20 100 0.108064
5 2 20 100 0.0744299
6 2 20 100 0.050578
7 2 20 100 0.0406189
8 2 20 100 0.0382376
9 2 20 100 0.0253069
10 2 20 100 0.0210729
11 2 20 100 0.0167159
12 2 20 100 0.0149098
13 2 20 100 0.00449518
14 2 20 100 0.00756888
15 2 20 100 0.00920636
16 2 20 100 0.00311354
17 2 20 100 0.00418185
18 2 20 100 0.00456618
19 2 20 100 0.00722456
20 2 20 100 0.0134393
0 3 20 100 0.095923
1 3 20 100 0.0345076
2 3 20 100 0.102475
3 3 20 100 0.159174
4 3 20 100 0.13306
5 3 20 100 0.103087
6 3 20 100 0.0772495
7 3 20 100 0.0646542
8 3 20 100 0.0477249
9 3 20 100 0.0411106
10 3 20 100 0.0225624
11 3 20 100 0.019803
12 3 20 100 0.0180521
13 3 20 100 0.0106071
14 3 20 100 0.015645
15 3 20 100 0.00590074
16 3 20 100 0.00793901
17 3 20 100 0.00348775
18 3 20 100 0.00779946
19 3 20 100 0.0122845
20 3 20 100 0.0169535
0 4 20 100 0.112093
1 4 20 100 0.0237333
2 4 20 100 0.0370245
3 4 20 100 0.0731844
4 4 20 100 0.0857976
5 4 20 100 0.133742
6 4 20 100 0.105622
7 4 20 100 0.076336
8 4 20 100 0.0675531
9 4 20 100 0.0671808
10 4 20 100 0.045375
11 4 20 100 0.0266741
12 4 20 100 0.0265814
13 4 20 100 0.0119159
14 4 20 100 0.0174368
15 4 20 100 0.0126995
16 4 20 100 0.00944328
17 4 20 100 0.0130207
18 4 20 100 0.0165143
19 4 20 100 0.0148791
20 4 20 100 0.0231935
0 5 20 100 0.101863
1 5 20 100 0.0261574
2 5 20 100 0.0173341
3 5 20 100 0.0438954
4 5 20 100 0.0733675
5 5 20 100 0.0901394
6 5 20 100 0.0965539
7 5 20 100 0.0889174
8 5 20 100 0.108037
9 5 20 100 0.0676251
10 5 20 100 0.0563422
11 5 20 100 0.044222
12 5 20 100 0.0314554
13 5 20 100 0.0204934
14 5 20 100 0.023036
15 5 20 100 0.0145534
16 5 20 100 0.0171661
17 5 20 100 0.0168334
18 5 20 100 0.0188632
19 5 20 100 0.0187368
20 5 20 100 0.0244085
0 6 20 100 0.116059
1 6 20 100 0.0213246
2 6 20 100 0.0123271
3 6 20 100 0.0201541
4 6 20 100 0.0492156
5 6 20 100 0.0569687
6 6 20 100 0.0750159
7 6 20 100 0.0762135
8 6 20 100 0.0752166
9 6 20 100 0.0998755
10 6 20 100 0.0753333
11 6 20 100 0.07545
12 6 20 100 0.0459397
13 6 20 100 0.0331262
14 6 20 100 0.0260443
15 6 20 100 0.0172035
16 6 20 100 0.0260721
17 6 20 100 0.0192491
18 6 20 100 0.0186483
19 6 20 100 0.0226302
20 6 20 100 0.0379321
0 7 20 100 0.10417
1 7 20 100 0.0166742
2 7 20 100 0.014718
3 7 20 100 0.0203958
4 7 20 100 0.0226203
5 7 20 100 0.048758
6 7 20 100 0.0521164
7 7 20 100 0.0596687
8 7 20 100 0.0696972
9 7 20 100 0.0839024
10 7 20 100 0.0800444
11 7 20 100 0.0947903
12 7 20 100 0.0570802
13 7 20 100 0.0494752
14 7 20 100 0.037015
15 7 20 100 0.0340479
16 7 20 100 0.0200737
17 7 20 100 0.0320076
18 7 20 100 0.0268733
19 7 20 100 0.0382649
20 7 20 100 0.037606
0 8 20 100 0.12702
1 8 20 100 0.00766466
2 8 20 100 0.00832156
3 8 20 100 0.0121807
4 8 20 100 0.017188
5 8 20 100 0.0260776
6 8 20 100 0.0332297
7 8 20 100 0.0375123
8 8 20 100 0.0461912
9 8 20 100 0.0735492
10 8 20 100 0.0710865
11 8 20 100 0.0960073
12 8 20 100 0.0697915
13 8 20 100 0.0744497
14 8 20 100 0.0527172
15 8 20 100 0.0444761
16 8 20 100 0.0479921
17 8 20 100 0.0403236
18 8 20 100 0.0231879
19 8 20 100 0.045838
20 8 20 100 0.0451955
0 9 20 100 0.109118
1 9 20 100 0.00750396
2 9 20 100 0.00910903
3 9 20 100 0.0104253
4 9 20 100 0.0167505
5 9 20 100 0.0150687
6 9 20 100 0.0206771
7 9 20 100 0.0291159
8 9 20 100 0.0282758
9 9 20 100 0.0596265
10 9 20 100 0.0626416
11 9 20 100 0.0775014
12 9 20 100 0.0801104
13 9 20 100 0.0685917
14 9 20 100 0.0773679
15 9 20 100 0.0596989
16 9 20 100 0.0715295
17 9 20 100 0.0481476
18 9 20 100 0.0404886
19 9 20 100 0.0485677
20 9 20 100 0.0596839
0 10 20 100 0.107323
1 10 20 100 0.00900488
2 10 20 100 0.00648832
3 10 20 100 0.00827321
4 10 20 100 0.010525
5 10 20 100 0.0161514
6 10 20 100 0.0126099
7 10 20 100 0.0164536
8 10 20 100 0.0234578
9 10 20 100 0.0435775
10 10 20 100 0.0380691
11 10 20 100 0.0570545
12 10 20 100 0.0773316
13 10 20 100 0.0685902
14 10 20 100 0.0827904
15 10 20 100 0.0846279
16 10 20 100 0.0633382
17 10 20 100 0.0585815
18 10 20 100 0.0620826
19 10 20 100 0.0812899
20 10 20 100 0.0723796
0 11 20 100 0.110814
1 11 20 100 0.00825665
2 11 20 100 0.00818365
3 11 20 100 0.00853726
4 11 20 100 0.00322822
5 11 20 100 0.00857254
6 11 20 100 0.00855869
7 11 20 100 0.0155899
8 11 20 100 0.0184793
9 11 20 100 0.0275409
10 11 20 100 0.0320841
11 11 20 100 0.0349701
12 11 20 100 0.0627333
13 11 20 100 0.0599074
14 11 20 100 0.071749
15 11 20 100 0.0957328
16 11 20 100 0.0711831
17 11 20 100 0.0850817
18 11 20 100 0.0711511
19 11 20 100 0.0866992
20 11 20 100 0.110947
0 12 20 100 0.0922618
1 12 20 100 0.0107595
2 12 20 100 0.00943628
3 12 20 100 0.00486656
4 12 20 100 0.00699928
5 12 20 100 0.00976
6 12 20 100 0.00701326
7 12 20 100 0.0121079
8 12 20 100 0.0152999
9 12 20 100 0.0197892
10 12 20 100 0.0195768
11 12 20 100 0.0367294
12 12 20 100 0.0543661
13 12 20 100 0.0573713
14 12 20 100 0.0553138
15 12 20 100 0.0728059
16 12 20 100 0.0896397
17 12 20 100 0.0887134
18 12 20 100 0.0827868
19 12 20 100 0.101455
20 12 20 100 0.152948
0 13 20 100 0.0951779
1 13 20 100 0.0105499
2 13 20 100 0.00515641
3 13 20 100 0.0035017
4 13 20 100 0.0106463
5 13 20 100 0.0142263
6 13 20 100 0.0108164
7 13 20 100 0.0092744
8 13 20 100 0.0115119
9 13 20 100 0.0199292
10 13 20 100 0.0145709
11 13 20 100 0.0253686
12 13 20 100 0.0461315
13 13 20 100 0.0324365
14 13 20 100 0.0589014
15 13 20 100 0.0485892
16 13 20 100 0.0724173
17 13 20 100 0.107709
18 13 20 100 0.0938452
19 13 20 100 0.118071
20 13 20 100 0.191169
0 14 20 100 0.0899451
1 14 20 100 0.00910647
2 14 20 100 0.00761818
3 14 20 100 0.00698465
4 14 20 100 0.00698957
5 14 20 100 0.012846
6 14 20 100 0.0144726
7 14 20 100 0.0101607
8 14 20 100 0.013206
9 14 20 100 0.0137422
10 14 20 100 0.00898544
11 14 20 100 0.0173028
12 14 20 100 0.0369293
13 14 20 100 0.0524905
14 14 20 100 0.0559258
15 14 20 100 0.0582136
16 14 20 100 0.0692373
17 14 20 100 0.074397
18 14 20 100 0.107674
19 14 20 100 0.11881
20 14 20 100 0.214963
0 15 20 100 0.0733152
1 15 20 100 0.00361123
2 15 20 100 0.00517576
3 15 20 100 0.00661996
4 15 20 100 0.00464203
5 15 20 100 0.0194995
6 15 20 100 0.0069531
7 15 20 100 0.00907829
8 15 20 100 0.00608041
9 15 20 100 0.0160856
10 15 20 100 0.0110054
11 15 20 100 0.0140664
12 15 20 100 0.0170685
13 15 20 100 0.0289111
14 15 20 100 0.0739785
15 15 20 100 0.0541792
16 15 20 100 0.0546485
17 15 20 100 0.0682094
18 15 20 100 0.125554
19 15 20 100 0.139954
20 15 20 100 0.261364
0 16 20 100 0.0708996
1 16 20 100 0.00460412
2 16 20 100 0.00389542
3 16 20 100 0.00235226
4 16 20 100 0.00287367
5 16 20 100 0.0181782
6 16 20 100 0.00481758
7 16 20 100 0.00337036
8 16 20 100 0.00744806
9 16 20 100 0.0268775
10 16 20 100 0.0106796
11 16 20 100 0.0177362
12 16 20 100 0.0125536
13 16 20 100 0.0282317
14 16 20 100 0.0503434
15 16 20 100 0.0302265
16 16 20 100 0.0451568
17 16 20 100 0.0690672
18 16 20 100 0.104648
19 16 20 100 0.124464
20 16 20 100 0.361576
0 17 20 100 0.0998972
1 17 20 100 0.00612371
2 17 20 100 0.000423779
3 17 20 100 0.000472592
4 17 20 100 0.000827055
5 17 20 100 0.0146571
6 17 20 100 0.00135962
7 17 20 100 0.00604209
8 17 20 100 0.00241654
9 17 20 100 0.0205016
10 17 20 100 0.0100415
11 17 20 100 0.0267931
12 17 20 100 0.0196117
13 17 20 100 0.0255079
14 17 20 100 0.0553507
15 17 20 100 0.0405418
16 17 20 100 0.0489973
17 17 20 100 0.0504456
18 17 20 100 0.112269
19 17 20 100 0.148185
20 17 20 100 0.309535
0 18 20 100 0.0889459
1 18 20 100 0.000100991
2 18 20 100 0.000756749
3 18 20 100 0.00512844
4 18 20 100 0.000123948
5 18 20 100 0.016128
6 18 20 100 0.00027584
7 18 20 100 0.0118839
8 18 20 100 0.00512149
9 18 20 100 0.00949341
10 18 20 100 0.0150558
11 18 20 100 0.0223751
12 18 20 100 0.0223795
13 18 20 100 0.00233503
14 18 20 100 0.0398644
15 18 20 100 0.0615228
16 18 20 100 0.0675105
17 18 20 100 0.0709323
18 18 20 100 0.103719
19 18 20 100 0.187993
20 18 20 100 0.268354
0 19 20 100 0.0752165
1 19 20 100 0.000883818
2 19 20 100 0.000129844
3 19 20 100 0.000444574
4 19 20 100 0.000153168
5 19 20 100 0.0010457
6 19 20 100 7.9681e-05
7 19 20 100 0.00175115
8 19 20 100 0.002803
9 19 20 100 0.0167949
10 19 20 100 0.000702717
11 19 20 100 0.0210334
12 19 20 100 0.0431153
13 19 20 100 0.0272457
14 19 20 100 0.0372038
15 19 20 100 0.0453077
16 19 20 100 0.0804382
17 19 20 100 0.116302
18 19 20 100 0.0434928
19 19 20 100 0.149008
20 19 20 100 0.336847
0 20 20 100 0.108289
1 20 20 100 0.00106312
2 20 20 100 2.43084e-05
3 20 20 100 0.00267699
4 20 20 100 0.00344645
5 20 20 100 0.000166376
6 20 20 100 0.000188401
7 20 20 100 3.0099e-05
8 20 20 100 0.0022549
9 20 20 100 0.00503614
10 20 20 100 0.0161628
11 20 20 100 0.00330668
12 20 20 100 0.0166173
13 20 20 100 0.0158761
14 20 20 100 0.0393293
15 20 20 100 0.0882315
16 20 20 100 0.0993267
17 20 20 100 0.0745516
18 20 20 100 0.0752453
19 20 20 100 0.158029
20 20 20 100 0.290148
0 21 20 100 0.107428
1 21 20 100 0.000727399
2 21 20 100 0.000305985
3 21 20 100 0.00156759
4 21 20 100 0.0193449
5 21 20 100 0.000428944
6 21 20 100 0.000131585
7 21 20 100 4.91757e-05
8 21 20 100 0.000497442
9 21 20 100 0.000489163
10 21 20 100 0.00128369
11 21 20 100 0.0129014
12 21 20 100 0.00197791
13 21 20 100 0.0916644
14 21 20 100 0.0161684
15 21 20 100 0.0424754
16 21 20 100 0.0488511
17 21 20 100 0.0660143
18 21 20 100 0.0705714
19 21 20 100 0.13186
20 21 20 100 0.385263
0 22 20 100 0.212145
1 22 20 100 6.45695e-05
2 22 20 100 0.000627926
3 22 20 100 0.000103145
4 22 20 100 4.28009e-05
5 22 20 100 0.0729897
6 22 20 100 0.000141054
7 22 20 100 2.52559e-05
8 22 20 100 4.6084e-05
9 22 20 100 0.00642485
10 22 20 100 0.000995011
11 22 20 100 0.0190904
12 22 20 100 0.00600215
13 22 20 100 0.00142663
14 22 20 100 0.0742472
15 22 20 100 0.00275149
16 22 20 100 0.130183
17 22 20 100 0.0139386
18 22 20 100 0.0108904
19 22 20 100 0.201858
20 22 20 100 0.246006
0 23 20 100 0.00204308
1 23 20 100 0.00152493
2 23 20 100 4.76063e-05
3 23 20 100 0.00434311
4 23 20 100 0.000805005
5 23 20 100 0.115293
6 23 20 100 0.000160218
9 23 20 100 0.000154276
10 23 20 100 0.000991569
11 23 20 100 7.21888e-05
12 23 20 100 4.13268e-05
13 23 20 100 0.125019
14 23 20 100 0.122932
15 23 20 100 0.121784
16 23 20 100 0.12578
17 23 20 100 0.126279
18 23 20 100 0.000524912
19 23 20 100 0.002032
20 23 20 100 0.250173
0 24 20 100 0.00604212
1 24 20 100 0.0154956
2 24 20 100 0.000195017
3 24 20 100 0.0703398
4 24 20 100 0.0135879
5 24 20 100 0.00141082
6 24 20 100 0.000103013
7 24 20 100 0.000668826
8 24 20 100 0.000392255
9 24 20 100 0.00171235
10 24 20 100 0.0260102
11 24 20 100 0.040901
12 24 20 100 0.012024
13 24 20 100 0.0692158
14 24 20 100 0.125166
15 24 20 100 0.055267
16 24 20 100 0.0321681
17 24 20 100 0.106497
18 24 20 100 0.00267906
19 24 20 100 0.152998
20 24 20 100 0.267127
0 25 20 100 0.000156443
1 25 20 100 1.24352e-06
2 25 20 100 1.30542e-05
3 25 20 100 0.0008141
4 25 20 100 2.27977e-07
5 25 20 100 0.473553
6 25 20 100 6.79823e-06
7 25 20 100 0.000138472
8 25 20 100 1.3697e-06
9 25 20 100 0.0356807
10 25 20 100 0.00116543
11 25 20 100 0.0851694
12 25 20 100 0.350425
14 25 20 100 8.93156e-05
15 25 20 100 0.0244997
16 25 20 100 0.0149634
17 25 20 100 1.00927e-06
18 25 20 100 0.00944714
19 25 20 100 8.64108e-06
20 25 20 100 0.00386595
1 1 21 100 0.561928
2 1 21 100 0.123758
3 1 21 100 0.0891566
4 1 21 100 0.0416274
5 1 21 100 0.029421
6 1 21 100 0.0313947
7 1 21 100 0.0202704
8 1 21 100 0.0244765
9 1 21 100 0.0131768
10 1 21 100 0.0141499
11 1 21 100 0.00339673
12 1 21 100 0.0109605
13 1 21 100 0.0024725
14 1 21 100 0.00349951
15 1 21 100 5.09927e-05
16 1 21 100 0.00243901
17 1 21 100 0.000116541
18 1 21 100 5.98005e-05
19 1 21 100 0.00540376
20 1 21 100 0.00696914
21 1 21 100 0.0152727
0 2 21 100 0.104396
1 2 21 100 0.0873029
2 2 21 100 0.217643
3 2 21 100 0.169456
4 2 21 100 0.102845
5 2 21 100 0.079245
6 2 21 100 0.054676
7 2 21 100 0.0285518
8 2 21 100 0.0364607
9 2 21 100 0.023915
10 2 21 100 0.0110368
11 2 21 100 0.0126209
12 2 21 100 0.0122625
13 2 21 100 0.00604334
14 2 21 100 0.00683379
15 2 21 100 0.0086902
16 2 21 100 0.00605258
17 2 21 100 0.00231886
18 2 21 100 0.00488462
19 2 21 100 0.00312035
20 2 21 100 0.0118243
21 2 21 100 0.00982094
0 3 21 100 0.105727
1 3 21 100 0.0383021
2 3 21 100 0.080855
3 3 21 100 0.173917
4 3 21 100 0.162022
5 3 21 100 0.0946462
6 3 21 100 0.0835921
7 3 21 100 0.0552522
8 3 21 100 0.0466189
9 3 21 100 0.0348329
10 3 21 100 0.0224857
11 3 21 100 0.0193886
12 3 21 100 0.0147365
13 3 21 100 0.00842915
14 3 21 100 0.0067968
15 3 21 100 0.0120917
16 3 21 100 0.00773239
17 3 21 100 0.00425796
18 3 21 100 0.00506799
19 3 21 100 0.00420674
20 3 21 100 0.0109803
21 3 21 100 0.00806167
0 4 21 100 0.12821
1 4 21 100 0.0259754
2 4 21 100 0.0285448
3 4 21 100 0.0751458
4 4 21 100 0.138538
5 4 21 100 0.124921
6 4 21 100 0.105759
7 4 21 100 0.0718359
8 4 21 100 0.0667826
9 4 21 100 0.0452312
10 4 21 100 0.0327644
11 4 21 100 0.0274854
12 4 21 100 0.0296489
13 4 21 100 0.0128929
14 4 21 100 0.00872565
15 4 21 100 0.0087026
16 4 21 100 0.0156288
17 4 21 100 0.0120125
18 4 21 100 0.00530941
19 4 21 100 0.00664422
20 4 21 100 0.0133729
21 4 21 100 0.015868
0 5 21 100 0.105252
1 5 21 100 0.0237019
2 5 21 100 0.0136034
3 5 21 100 0.0247004
4 5 21 100 0.0918256
5 5 21 100 0.112079
6 5 21 100 0.112216
7 5 21 100 0.0879988
8 5 21 100 0.0827541
9 5 21 100 0.0644876
10 5 21 100 0.0412673
11 5 21 100 0.0480852
12 5 21 100 0.0397594
13 5 21 100 0.019931
14 5 21 100 0.0232593
15 5 21 100 0.0225688
16 5 21 100 0.0174857
17 5 21 100 0.0153486
18 5 21 100 0.0153784
19 5 21 100 0.0115728
20 5 21 100 0.0132092
21 5 21 100 0.013515
0 6 21 100 0.113204
1 6 21 100 0.0153467
2 6 21 100 0.015693
3 6 21 100 0.0224111
4 6 21 100 0.0405062
5 6 21 100 0.0783789
6 6 21 100 0.0929821
7 6 21 100 0.0907676
8 6 21 100 0.0895251
9 6 21 100 0.0739919
10 6 21 100 0.0585276
11 6 21 100 0.0599991
12 6 21 100 0.0613451
13 6 21 100 0.0320964
14 6 21 100 0.0271775
15 6 21 100 0.0230879
16 6 21 100 0.0207409
17 6 21 100 0.017699
18 6 21 100 0.0179924
19 6 21 100 0.0132353
20 6 21 100 0.0184692
21 6 21 100 0.0168233
0 7 21 100 0.118847
1 7 21 100 0.0155712
2 7 21 100 0.00793232
3 7 21 100 0.0133329
4 7 21 100 0.0295908
5 7 21 100 0.0334496
6 7 21 100 0.0616666
7 7 21 100 0.0731626
8 7 21 100 0.0644793
9 7 21 100 0.0850956
10 7 21 100 0.0821399
11 7 21 100 0.0762258
12 7 21 100 0.0657403
13 7 21 100 0.0517765
14 7 21 100 0.0457647
15 7 21 100 0.0377277
16 7 21 100 0.0200238
17 7 21 100 0.0250824
18 7 21 100 0.0220567
19 7 21 100 0.0233291
20 7 21 100 0.0219409
21 7 21 100 0.0250641
0 8 21 100 0.0884603
1 8 21 100 0.00892134
2 8 21 100 0.00714082
3 8 21 100 0.0129092
4 8 21 100 0.0138049
5 8 21 100 0.0251571
6 8 21 100 0.0309542
7 8 21 100 0.0534074
8 8 21 100 0.0635182
9 8 21 100 0.0579653
10 8 21 100 0.0734205
11 8 21 100 0.101952
12 8 21 100 0.0908
13 8 21 100 0.0562656
14 8 21 100 0.0365981
15 8 21 100 0.0461036
16 8 21 100 0.0414051
17 8 21 100 0.0437913
18 8 21 100 0.033698
19 8 21 100 0.0316824
20 8 21 100 0.0392956
21 8 21 100 0.0427486
0 9 21 100 0.112559
1 9 21 100 0.0101879
2 9 21 100 0.00852804
3 9 21 100 0.00506736
4 9 21 100 0.0109734
5 9 21 100 0.0165087
6 9 21 100 0.019013
7 9 21 100 0.0210947
8 9 21 100 0.0351478
9 9 21 100 0.0567197
10 9 21 100 0.0671283
11 9 21 100 0.0669778
12 9 21 100 0.0742465
13 9 21 100 0.0946019
14 9 21 100 0.0690535
15 9 21 100 0.0498149
16 9 21 100 0.0473509
17 9 21 100 0.0511081
18 9 21 100 0.0460815
19 9 21 100 0.0318955
20 9 21 100 0.0571921
21 9 21 100 0.0487489
0 10 21 100 0.0957468
1 10 21 100 0.00567192
2 10 21 100 0.00470744
3 10 21 100 0.0120912
4 10 21 100 0.0081698
5 10 21 100 0.010732
6 10 21 100 0.00803913
7 10 21 100 0.0259266
8 10 21 100 0.0324713
9 10 21 100 0.0333316
10 10 21 100 0.0563574
11 10 21 100 0.0532947
12 10 21 100 0.0751273
13 10 21 100 0.0761852
14 10 21 100 0.0653043
15 10 21 100 0.0694058
16 10 21 100 0.0667592
17 10 21 100 0.0561473
18 10 21 100 0.0632293
19 10 21 100 0.0549135
20 10 21 100 0.0644241
21 10 21 100 0.0619642
0 11 21 100 0.0939033
1 11 21 100 0.00412274
2 11 21 100 0.00334345
3 11 21 100 0.00291412
4 11 21 100 0.00836286
5 11 21 100 0.0100721
6 11 21 100 0.00715275
7 11 21 100 0.016322
8 11 21 100 0.0208894
9 11 21 100 0.0290147
10 11 21 100 0.029741
11 11 21 100 0.0560783
12 11 21 100 0.0503252
13 11 21 100 0.0732257
14 11 21 100 0.0631019
15 11 21 100 0.0942517
16 11 21 100 0.0680946
17 11 21 100 0.059345
18 11 21 100 0.0723145
19 11 21 100 0.0588241
20 11 21 100 0.0849535
21 11 21 100 0.093647
0 12 21 100 0.0966508
1 12 21 100 0.00743691
2 12 21 100 0.0024273
3 12 21 100 0.000532102
4 12 21 100 0.00311112
5 12 21 100 0.008256
6 12 21 100 0.00625267
7 12 21 100 0.0107219
8 12 21 100 0.0175162
9 12 21 100 0.018989
10 12 21 100 0.0220868
11 12 21 100 0.0412017
12 12 21 100 0.0430918
13 12 21 100 0.0573698
14 12 21 100 0.0584561
15 12 21 100 0.0676665
16 12 21 100 0.0855604
17 12 21 100 0.0903227
18 12 21 100 0.0757939
19 12 21 100 0.0801746
20 12 21 100 0.095445
21 12 21 100 0.110936
0 13 21 100 0.119721
1 13 21 100 0.00523533
2 13 21 100 0.00205818
3 13 21 100 0.00241634
4 13 21 100 0.00491293
5 13 21 100 0.00265151
6 13 21 100 0.00681368
7 13 21 100 0.00362386
8 13 21 100 0.0104212
9 13 21 100 0.0140496
10 13 21 100 0.0178964
11 13 21 100 0.0311342
12 13 21 100 0.0248395
13 13 21 100 0.0383716
14 13 21 100 0.0606509
15 13 21 100 0.066339
16 13 21 100 0.0819393
17 13 21 100 0.0749821
18 13 21 100 0.0899867
19 13 21 100 0.11512
20 13 21 100 0.0877561
21 13 21 100 0.139081
0 14 21 100 0.082465
1 14 21 100 0.00430227
2 14 21 100 0.000696519
3 14 21 100 0.00273903
4 14 21 100 0.0058222
5 14 21 100 0.00320807
6 14 21 100 0.00730759
7 14 21 100 0.00826504
8 14 21 100 0.0132381
9 14 21 100 0.00738325
10 14 21 100 0.0155787
11 14 21 100 0.0256904
12 14 21 100 0.0346806
13 14 21 100 0.0274347
14 14 21 100 0.057584
15 14 21 100 0.0498499
16 14 21 100 0.0707548
17 14 21 100 0.0760966
18 14 21 100 0.0877398
19 14 21 100 0.126135
20 14 21 100 0.120519
21 14 21 100 0.17251
0 15 21 100 0.0994421
1 15 21 100 0.000996626
2 15 21 100 0.000377014
3 15 21 100 0.00389058
4 15 21 100 0.000604071
5 15 21 100 0.00779538
6 15 21 100 0.00663022
7 15 21 100 0.00642755
8 15 21 100 0.0145267
9 15 21 100 0.0122202
10 15 21 100 0.00624919
11 15 21 100 0.0201293
